{"learner":{"attributes":{"scikit_learn":"{\"_estimator_type\": \"regressor\"}"},"feature_names":["Customer Status","Quantity Ordered","Cost Price Per Unit"],"feature_types":["int","int","float"],"gradient_booster":{"model":{"gbtree_model_param":{"num_parallel_tree":"1","num_trees":"100"},"iteration_indptr":[0,1,2,3,4,5,6,7,8,9,10,11,12,13,14,15,16,17,18,19,20,21,22,23,24,25,26,27,28,29,30,31,32,33,34,35,36,37,38,39,40,41,42,43,44,45,46,47,48,49,50,51,52,53,54,55,56,57,58,59,60,61,62,63,64,65,66,67,68,69,70,71,72,73,74,75,76,77,78,79,80,81,82,83,84,85,86,87,88,89,90,91,92,93,94,95,96,97,98,99,100],"tree_info":[0,0,0,0,0,0,0,0,0,0,0,0,0,0,0,0,0,0,0,0,0,0,0,0,0,0,0,0,0,0,0,0,0,0,0,0,0,0,0,0,0,0,0,0,0,0,0,0,0,0,0,0,0,0,0,0,0,0,0,0,0,0,0,0,0,0,0,0,0,0,0,0,0,0,0,0,0,0,0,0,0,0,0,0,0,0,0,0,0,0,0,0,0,0,0,0,0,0,0,0],"trees":[{"base_weights":[-5.9691165E-6,-4.4453888E1,2.8050208E2,-7.982027E1,3.2858868E1,2.0465323E2,7.5767236E2,-1.0326697E2,-5.3173E1,2.7734346E0,2.1342992E2,1.5996547E2,5.442981E2,6.360878E2,1.7221284E3,-1.1469214E2,-8.566288E1,-8.20741E1,-1.1605484E1,-3.60615E1,6.377304E1,1.630253E2,3.1312253E2,8.178251E1,2.8787454E2,3.610382E2,8.556508E2,4.9420398E2,8.4164087E2,1.320234E3,2.0635742E3,-1.25415535E2,-1.0805705E2,-9.148311E1,-7.620337E1,-1.0800815E2,-6.625763E1,-3.3342262E1,4.2977818E1,-5.120269E1,-1.613008E1,3.4860302E1,1.0156031E2,1.12401825E2,2.1311458E2,2.5214905E2,4.107902E2,4.2911133E1,1.27242E2,2.1544385E2,3.818872E2,3.5275708E2,4.0345117E2,7.485633E2,1.0772267E3,3.846471E2,6.4375964E2,6.5823865E2,1.0228372E3,3.300882E2,4.4980634E2,1.4503046E3,2.2192666E3,-3.957803E1,-3.6783672E1,-3.4199028E1,-3.1060814E1,-2.8614433E1,-2.5917803E1,-2.4091297E1,-2.1955397E1,-3.643126E1,-3.0075466E1,-2.3477856E1,-1.0989435E1,-1.4200826E1,-5.2047386E0,6.0774403E0,2.8198149E1,-1.8325205E1,-1.2812918E1,-6.8854423E0,-3.5799238E-1,4.617698E0,1.5591853E1,2.5128824E1,3.6243805E1,2.6256216E1,4.111252E1,5.6253994E1,7.437267E1,6.449862E1,9.7538826E1,1.0717216E2,1.5538419E2,2.458248E1,1.2218816E1,3.282332E1,5.745262E1,5.91634E1,7.241924E1,1.0520521E2,1.4928452E2,8.5546326E1,1.2476533E2,1.8092444E2,2.4653171E2,3.1726218E2,6.8679156E2,1.0741975E2,1.3461423E2,1.7913348E2,2.4671669E2,1.7460562E2,2.4735039E2,2.7246213E2,3.8406125E2,3.8694028E2,5.3526196E2,6.508758E2,1.2486815E3],"categories":[],"categories_nodes":[],"categories_segments":[],"categories_sizes":[],"default_left":[0,0,0,0,0,0,0,0,0,0,0,0,0,0,0,0,0,0,0,0,0,0,0,0,0,0,0,0,0,0,0,0,0,0,0,0,0,0,0,0,0,0,0,0,0,0,0,0,0,0,0,0,0,0,0,0,0,0,0,0,0,0,0,0,0,0,0,0,0,0,0,0,0,0,0,0,0,0,0,0,0,0,0,0,0,0,0,0,0,0,0,0,0,0,0,0,0,0,0,0,0,0,0,0,0,0,0,0,0,0,0,0,0,0,0,0,0,0,0,0,0],"id":0,"left_children":[1,3,5,7,9,11,13,15,17,19,21,23,25,27,29,31,33,35,37,39,41,43,45,47,49,51,53,55,57,59,61,63,65,67,69,71,73,75,77,79,81,83,85,87,89,91,93,95,97,99,101,103,-1,105,107,109,111,113,115,-1,-1,117,119,-1,-1,-1,-1,-1,-1,-1,-1,-1,-1,-1,-1,-1,-1,-1,-1,-1,-1,-1,-1,-1,-1,-1,-1,-1,-1,-1,-1,-1,-1,-1,-1,-1,-1,-1,-1,-1,-1,-1,-1,-1,-1,-1,-1,-1,-1,-1,-1,-1,-1,-1,-1,-1,-1,-1,-1,-1,-1],"loss_changes":[2.3070272E9,4.366795E8,9.158849E8,6.845843E7,2.723173E8,3.3139968E8,4.0592397E8,1.1713792E7,6.161731E7,1.0179224E8,3.592269E7,1.930024E8,1.4456256E8,8.952794E7,5.051904E7,2.50128E6,1.256304E6,1.2403008E7,2.4961096E7,7.922548E6,1.825816E7,1.2038336E7,1.4206608E7,2.1165832E7,4.9776256E7,1.2560736E7,2.149792E7,2.9687488E7,4.113235E7,5.480864E6,1.66416E7,2.30304E5,5.74752E5,2.73552E5,1.02396E5,1.181584E6,6.680424E6,3.366549E6,6.94323E6,1.249504E6,1.1549932E6,3.154431E6,2.472344E6,1.439752E6,2.082472E6,3.94852E6,5.105632E6,5.46762E5,6.306912E6,1.910496E6,1.1326752E7,6.65832E6,0E0,6.288832E6,4.832768E6,1.639392E6,5.93344E6,7.478464E6,1.745312E7,0E0,0E0,1.10384E5,6.800448E6,0E0,0E0,0E0,0E0,0E0,0E0,0E0,0E0,0E0,0E0,0E0,0E0,0E0,0E0,0E0,0E0,0E0,0E0,0E0,0E0,0E0,0E0,0E0,0E0,0E0,0E0,0E0,0E0,0E0,0E0,0E0,0E0,0E0,0E0,0E0,0E0,0E0,0E0,0E0,0E0,0E0,0E0,0E0,0E0,0E0,0E0,0E0,0E0,0E0,0E0,0E0,0E0,0E0,0E0,0E0,0E0,0E0,0E0],"parents":[2147483647,0,0,1,1,2,2,3,3,4,4,5,5,6,6,7,7,8,8,9,9,10,10,11,11,12,12,13,13,14,14,15,15,16,16,17,17,18,18,19,19,20,20,21,21,22,22,23,23,24,24,25,25,26,26,27,27,28,28,29,29,30,30,31,31,32,32,33,33,34,34,35,35,36,36,37,37,38,38,39,39,40,40,41,41,42,42,43,43,44,44,45,45,46,46,47,47,48,48,49,49,50,50,51,51,53,53,54,54,55,55,56,56,57,57,58,58,61,61,62,62],"right_children":[2,4,6,8,10,12,14,16,18,20,22,24,26,28,30,32,34,36,38,40,42,44,46,48,50,52,54,56,58,60,62,64,66,68,70,72,74,76,78,80,82,84,86,88,90,92,94,96,98,100,102,104,-1,106,108,110,112,114,116,-1,-1,118,120,-1,-1,-1,-1,-1,-1,-1,-1,-1,-1,-1,-1,-1,-1,-1,-1,-1,-1,-1,-1,-1,-1,-1,-1,-1,-1,-1,-1,-1,-1,-1,-1,-1,-1,-1,-1,-1,-1,-1,-1,-1,-1,-1,-1,-1,-1,-1,-1,-1,-1,-1,-1,-1,-1,-1,-1,-1,-1],"split_conditions":[6.985E1,3.225E1,3E0,2E0,3E0,1.9375E2,1.9375E2,1.78E1,1.78E1,2E0,4E0,2E0,2E0,4E0,4E0,8.75E0,2.52E1,8.75E0,3E0,4.885E1,4.885E1,4.65E1,5.055E1,1.001E2,1.001E2,7.918E2,2.532E2,1.001E2,1.001E2,2.41E2,2.0615E2,4.7E0,1.225E1,2.155E1,2.84E1,4.9E0,3E0,2.405E1,4E0,3.955E1,6.01E1,3.955E1,5.7E1,3.885E1,5.7E1,5E0,5E0,7.155E1,1.4855E2,8.35E1,1.4855E2,2.41E2,4.0345117E2,2.0615E2,7.918E2,8.64E1,1.4855E2,5E0,5E0,3.300882E2,4.4980634E2,5E0,7.918E2,-3.957803E1,-3.6783672E1,-3.4199028E1,-3.1060814E1,-2.8614433E1,-2.5917803E1,-2.4091297E1,-2.1955397E1,-3.643126E1,-3.0075466E1,-2.3477856E1,-1.0989435E1,-1.4200826E1,-5.2047386E0,6.0774403E0,2.8198149E1,-1.8325205E1,-1.2812918E1,-6.8854423E0,-3.5799238E-1,4.617698E0,1.5591853E1,2.5128824E1,3.6243805E1,2.6256216E1,4.111252E1,5.6253994E1,7.437267E1,6.449862E1,9.7538826E1,1.0717216E2,1.5538419E2,2.458248E1,1.2218816E1,3.282332E1,5.745262E1,5.91634E1,7.241924E1,1.0520521E2,1.4928452E2,8.5546326E1,1.2476533E2,1.8092444E2,2.4653171E2,3.1726218E2,6.8679156E2,1.0741975E2,1.3461423E2,1.7913348E2,2.4671669E2,1.7460562E2,2.4735039E2,2.7246213E2,3.8406125E2,3.8694028E2,5.3526196E2,6.508758E2,1.2486815E3],"split_indices":[2,2,1,1,1,2,2,2,2,1,1,1,1,1,1,2,2,2,1,2,2,2,2,2,2,2,2,2,2,2,2,2,2,2,2,2,1,2,1,2,2,2,2,2,2,1,1,2,2,2,2,2,0,2,2,2,2,1,1,0,0,1,2,0,0,0,0,0,0,0,0,0,0,0,0,0,0,0,0,0,0,0,0,0,0,0,0,0,0,0,0,0,0,0,0,0,0,0,0,0,0,0,0,0,0,0,0,0,0,0,0,0,0,0,0,0,0,0,0,0,0],"split_type":[0,0,0,0,0,0,0,0,0,0,0,0,0,0,0,0,0,0,0,0,0,0,0,0,0,0,0,0,0,0,0,0,0,0,0,0,0,0,0,0,0,0,0,0,0,0,0,0,0,0,0,0,0,0,0,0,0,0,0,0,0,0,0,0,0,0,0,0,0,0,0,0,0,0,0,0,0,0,0,0,0,0,0,0,0,0,0,0,0,0,0,0,0,0,0,0,0,0,0,0,0,0,0,0,0,0,0,0,0,0,0,0,0,0,0,0,0,0,0,0,0],"sum_hessian":[1.85013E5,1.59704E5,2.5309E4,1.09578E5,5.0126E4,2.1839E4,3.47E3,5.8288E4,5.129E4,4.2968E4,7.158E3,1.9301E4,2.538E3,3.083E3,3.87E2,3.5344E4,2.2944E4,3.0254E4,2.1036E4,2.6254E4,1.6714E4,4.756E3,2.402E3,1.198E4,7.321E3,1.599E3,9.39E2,1.826E3,1.257E3,1.8E2,2.07E2,1.3503E4,2.1841E4,1.4199E4,8.745E3,1.1459E4,1.8795E4,1.5045E4,5.991E3,1.4919E4,1.1335E4,9.47E3,7.244E3,2.367E3,2.389E3,1.481E3,9.21E2,6.459E3,5.521E3,4.137E3,3.184E3,1.587E3,1.2E1,6.36E2,3.03E2,1.056E3,7.7E2,6.27E2,6.3E2,8.4E1,9.6E1,4.4E1,1.63E2,4.05E3,9.453E3,9.429E3,1.2412E4,8.031E3,6.168E3,3.697E3,5.048E3,4.19E3,7.269E3,1.3375E4,5.42E3,8.023E3,7.022E3,4.146E3,1.845E3,6.893E3,8.026E3,7.781E3,3.554E3,4.431E3,5.039E3,3.767E3,3.477E3,1.18E3,1.187E3,1.38E3,1.009E3,9.84E2,4.97E2,6.17E2,3.04E2,3.4E2,6.119E3,4.324E3,1.197E3,2.435E3,1.702E3,2.511E3,6.73E2,7.69E2,8.18E2,2.16E2,4.2E2,3E2,3E0,7.51E2,3.05E2,6.14E2,1.56E2,4.33E2,1.94E2,4.39E2,1.91E2,3.3E1,1.1E1,1.61E2,2E0],"tree_param":{"num_deleted":"0","num_feature":"3","num_nodes":"121","size_leaf_vector":"1"}},{"base_weights":[4.4555653E-2,-3.1115608E1,1.9666383E2,-5.838461E1,1.8741043E1,1.433744E2,5.3191144E2,-6.477766E1,-1.654409E1,-1.697149E0,1.4127673E2,1.1636758E2,4.2431155E2,4.3456122E2,1.1495358E3,-8.054404E1,-5.326195E1,-5.3652042E1,1.0815584E1,-2.8007666E1,3.9358315E1,1.0724599E2,2.088703E2,6.0625805E1,2.0796594E2,2.8514755E2,6.528463E2,3.376479E2,5.7587787E2,8.808424E2,1.3907307E3,-8.800611E1,-7.557672E1,-6.5687965E1,-3.3329018E1,-7.055015E1,-4.427547E1,2.4954956E0,8.006137E1,-4.097103E1,-1.36609745E1,1.49533E1,6.663251E1,7.1888336E1,1.4788275E2,1.4893307E2,2.71976E2,3.6497814E1,1.0442627E2,1.6041655E2,2.9237488E2,2.7733426E2,2.9172626E2,5.7582623E2,7.573615E2,2.7280344E2,4.4358865E2,4.6565146E2,7.022245E2,2.0276039E2,1.0115177E3,1.2316042E3,1.8769034E3,-2.7934488E1,-2.5778244E1,-2.4223063E1,-2.0243607E1,-2.1341629E1,-1.7719543E1,-1.26575365E1,-5.794093E0,-2.4629702E1,-1.9056997E1,-1.6380892E1,-6.683868E0,-3.6588466E0,9.501586E0,1.7497057E1,3.6703518E1,-1.3955839E1,-1.0200866E1,-6.6294127E0,-1.5290711E0,1.3129113E0,8.618819E0,1.7478117E1,2.8181126E1,1.7941881E1,2.908788E1,3.7791267E1,5.1197945E1,3.660547E1,6.002421E1,7.121014E1,1.0324316E2,8.071278E0,1.8122734E1,2.5088186E1,4.2167625E1,4.353625E1,6.197734E1,7.673901E1,1.10128E2,7.312157E1,9.909905E1,1.606056E2,1.8213297E2,2.2239973E2,5.3226355E2,7.082101E1,9.1189064E1,1.2755953E2,1.5967079E2,1.3103027E2,2.2988733E2,1.975532E2,3.313505E2,2.9637402E2,6.297151E2,3.1857062E2,4.7897656E2,5.3025183E2,9.989452E2],"categories":[],"categories_nodes":[],"categories_segments":[],"categories_sizes":[],"default_left":[0,0,0,0,0,0,0,0,0,0,0,0,0,0,0,0,0,0,0,0,0,0,0,0,0,0,0,0,0,0,0,0,0,0,0,0,0,0,0,0,0,0,0,0,0,0,0,0,0,0,0,0,0,0,0,0,0,0,0,0,0,0,0,0,0,0,0,0,0,0,0,0,0,0,0,0,0,0,0,0,0,0,0,0,0,0,0,0,0,0,0,0,0,0,0,0,0,0,0,0,0,0,0,0,0,0,0,0,0,0,0,0,0,0,0,0,0,0,0,0,0,0,0],"id":1,"left_children":[1,3,5,7,9,11,13,15,17,19,21,23,25,27,29,31,33,35,37,39,41,43,45,47,49,51,53,55,57,59,61,63,65,67,69,71,73,75,77,79,81,83,85,87,89,91,93,95,97,99,101,103,-1,105,107,109,111,113,115,-1,117,119,121,-1,-1,-1,-1,-1,-1,-1,-1,-1,-1,-1,-1,-1,-1,-1,-1,-1,-1,-1,-1,-1,-1,-1,-1,-1,-1,-1,-1,-1,-1,-1,-1,-1,-1,-1,-1,-1,-1,-1,-1,-1,-1,-1,-1,-1,-1,-1,-1,-1,-1,-1,-1,-1,-1,-1,-1,-1,-1,-1,-1],"loss_changes":[1.1335292E9,2.1712661E8,4.520908E8,2.7614112E7,1.4141664E8,1.6565546E8,2.0819718E8,1.6255392E7,1.3894433E7,5.2278004E7,1.8545296E7,1.0172669E8,6.0718144E7,4.0891904E7,2.936416E7,1.394432E6,1.2817344E7,9.17133E5,4.5385605E6,5.48496E6,1.2580686E7,7.706532E6,1.017948E7,1.3089096E7,3.0207584E7,6.1312E6,5.391936E6,1.2120736E7,1.6649728E7,5.369792E6,1.6797056E7,1.52352E5,9.44344E5,1.146704E6,2.468208E6,1.6285E5,8.479175E5,3.0155125E6,7.695515E5,5.97452E5,1.0116105E6,1.4536105E6,2.034984E6,8.64773E5,1.225224E6,1.886352E6,3.202712E6,1.831236E6,3.294928E6,3.37708E6,7.326368E6,2.0204E6,0E0,2.08032E5,3.63968E6,1.196472E6,8.74112E5,5.344416E6,9.225824E6,0E0,1.417504E6,1.0010976E7,3.492256E6,0E0,0E0,0E0,0E0,0E0,0E0,0E0,0E0,0E0,0E0,0E0,0E0,0E0,0E0,0E0,0E0,0E0,0E0,0E0,0E0,0E0,0E0,0E0,0E0,0E0,0E0,0E0,0E0,0E0,0E0,0E0,0E0,0E0,0E0,0E0,0E0,0E0,0E0,0E0,0E0,0E0,0E0,0E0,0E0,0E0,0E0,0E0,0E0,0E0,0E0,0E0,0E0,0E0,0E0,0E0,0E0,0E0,0E0,0E0,0E0],"parents":[2147483647,0,0,1,1,2,2,3,3,4,4,5,5,6,6,7,7,8,8,9,9,10,10,11,11,12,12,13,13,14,14,15,15,16,16,17,17,18,18,19,19,20,20,21,21,22,22,23,23,24,24,25,25,26,26,27,27,28,28,29,29,30,30,31,31,32,32,33,33,34,34,35,35,36,36,37,37,38,38,39,39,40,40,41,41,42,42,43,43,44,44,45,45,46,46,47,47,48,48,49,49,50,50,51,51,53,53,54,54,55,55,56,56,57,57,58,58,60,60,61,61,62,62],"right_children":[2,4,6,8,10,12,14,16,18,20,22,24,26,28,30,32,34,36,38,40,42,44,46,48,50,52,54,56,58,60,62,64,66,68,70,72,74,76,78,80,82,84,86,88,90,92,94,96,98,100,102,104,-1,106,108,110,112,114,116,-1,118,120,122,-1,-1,-1,-1,-1,-1,-1,-1,-1,-1,-1,-1,-1,-1,-1,-1,-1,-1,-1,-1,-1,-1,-1,-1,-1,-1,-1,-1,-1,-1,-1,-1,-1,-1,-1,-1,-1,-1,-1,-1,-1,-1,-1,-1,-1,-1,-1,-1,-1,-1,-1,-1,-1,-1,-1,-1,-1,-1,-1,-1],"split_conditions":[6.985E1,2.98E1,3E0,3E0,3E0,2.0615E2,1.6805E2,1.23E1,1.225E1,2E0,4E0,2E0,2E0,4E0,4E0,6.85E0,2E0,6.6E0,5E0,4.55E1,4.55E1,4.55E1,4.55E1,1.136E2,1.11E2,7.918E2,2.532E2,1.041E2,1.041E2,2.0615E2,2.532E2,3.35E0,2E0,2.02E1,2.155E1,3.6E0,4E0,2.27E1,2.25E1,3.81E1,5.495E1,3.81E1,6.01E1,3.955E1,5.495E1,5E0,5E0,9.205E1,1.4855E2,9.205E1,1.4855E2,2.532E2,2.9172626E2,2.41E2,7.918E2,8.03E1,1.4855E2,6E0,6E0,2.0276039E2,7.918E2,5E0,7.918E2,-2.7934488E1,-2.5778244E1,-2.4223063E1,-2.0243607E1,-2.1341629E1,-1.7719543E1,-1.26575365E1,-5.794093E0,-2.4629702E1,-1.9056997E1,-1.6380892E1,-6.683868E0,-3.6588466E0,9.501586E0,1.7497057E1,3.6703518E1,-1.3955839E1,-1.0200866E1,-6.6294127E0,-1.5290711E0,1.3129113E0,8.618819E0,1.7478117E1,2.8181126E1,1.7941881E1,2.908788E1,3.7791267E1,5.1197945E1,3.660547E1,6.002421E1,7.121014E1,1.0324316E2,8.071278E0,1.8122734E1,2.5088186E1,4.2167625E1,4.353625E1,6.197734E1,7.673901E1,1.10128E2,7.312157E1,9.909905E1,1.606056E2,1.8213297E2,2.2239973E2,5.3226355E2,7.082101E1,9.1189064E1,1.2755953E2,1.5967079E2,1.3103027E2,2.2988733E2,1.975532E2,3.313505E2,2.9637402E2,6.297151E2,3.1857062E2,4.7897656E2,5.3025183E2,9.989452E2],"split_indices":[2,2,1,1,1,2,2,2,2,1,1,1,1,1,1,2,1,2,1,2,2,2,2,2,2,2,2,2,2,2,2,2,1,2,2,2,1,2,2,2,2,2,2,2,2,1,1,2,2,2,2,2,0,2,2,2,2,1,1,0,2,1,2,0,0,0,0,0,0,0,0,0,0,0,0,0,0,0,0,0,0,0,0,0,0,0,0,0,0,0,0,0,0,0,0,0,0,0,0,0,0,0,0,0,0,0,0,0,0,0,0,0,0,0,0,0,0,0,0,0,0,0,0],"split_type":[0,0,0,0,0,0,0,0,0,0,0,0,0,0,0,0,0,0,0,0,0,0,0,0,0,0,0,0,0,0,0,0,0,0,0,0,0,0,0,0,0,0,0,0,0,0,0,0,0,0,0,0,0,0,0,0,0,0,0,0,0,0,0,0,0,0,0,0,0,0,0,0,0,0,0,0,0,0,0,0,0,0,0,0,0,0,0,0,0,0,0,0,0,0,0,0,0,0,0,0,0,0,0,0,0,0,0,0,0,0,0,0,0,0,0,0,0,0,0,0,0,0,0],"sum_hessian":[1.85013E5,1.59704E5,2.5309E4,1.03238E5,5.6466E4,2.1839E4,3.47E3,8.9554E4,1.3684E4,4.8395E4,8.071E3,1.9925E4,1.914E3,2.999E3,4.71E2,3.7798E4,5.1756E4,5.807E3,7.877E3,2.9494E4,1.8901E4,5.37E3,2.701E3,1.2388E4,7.537E3,1.191E3,7.23E2,1.781E3,1.218E3,2.25E2,2.46E2,1.5099E4,2.2699E4,3.188E4,1.9876E4,2.07E3,3.737E3,7.033E3,8.44E2,1.5493E4,1.4001E4,9.976E3,8.925E3,2.873E3,2.497E3,1.387E3,1.314E3,7.989E3,4.399E3,4.823E3,2.714E3,1.179E3,1.2E1,4.2E2,3.03E2,1.107E3,6.74E2,6.53E2,5.65E2,9E1,1.35E2,1.88E2,5.8E1,4.354E3,1.0745E4,1.3852E4,8.847E3,1.7482E4,1.4398E4,1.2175E4,7.701E3,7.79E2,1.291E3,2.542E3,1.195E3,4.678E3,2.355E3,5.59E2,2.85E2,8.622E3,6.871E3,7.052E3,6.949E3,5.644E3,4.332E3,6.833E3,2.092E3,1.941E3,9.32E2,1.276E3,1.221E3,9.11E2,4.76E2,8.91E2,4.23E2,5.703E3,2.286E3,2.794E3,1.605E3,3.626E3,1.197E3,1.825E3,8.89E2,7.25E2,4.54E2,1.91E2,2.29E2,3E2,3E0,5.12E2,5.95E2,5.63E2,1.11E2,5.98E2,5.5E1,5.12E2,5.3E1,1.34E2,1E0,1.31E2,5.7E1,5.6E1,2E0],"tree_param":{"num_deleted":"0","num_feature":"3","num_nodes":"123","size_leaf_vector":"1"}},{"base_weights":[6.9077015E-2,-2.2556055E1,1.3361424E2,-4.230503E1,9.81246E0,9.680712E1,3.6552988E2,-5.2394196E1,-3.0725376E1,-3.8739228E0,9.133725E1,7.22138E1,2.5206511E2,3.1407175E2,9.448034E2,-5.9413403E1,-4.6949783E1,-4.775397E1,-1.7079702E1,-2.170178E1,2.3731834E1,5.8004738E1,1.2451737E2,3.5355095E1,1.3287851E2,1.6688312E2,3.9820938E2,2.4392226E2,4.267299E2,9.1532526E2,8.6699603E2,-6.346059E1,-5.652062E1,-5.0689533E1,-4.3239857E1,-5.015701E1,-2.5088326E1,-2.16983E1,3.1540682E1,-3.1218378E1,-1.2450332E1,5.039883E0,4.1720413E1,4.2532913E1,9.216111E1,9.6583496E1,1.784598E2,1.8493572E1,5.653351E1,1.02774765E2,1.7947865E2,1.632925E2,2.1094049E2,3.2225903E2,4.8751968E2,1.90421E2,3.3200787E2,3.842586E2,6.994674E2,6.937347E2,1.0943339E3,-2.0183895E1,-1.8826761E1,-1.7624277E1,-1.6674257E1,-1.5572614E1,-1.4746967E1,-1.3737684E1,-1.2230557E1,-1.7414257E1,-1.3655488E1,-1.1960215E1,-4.498073E0,-8.570271E0,-3.7336788E0,7.9426093E0,2.4648838E1,-1.0698393E1,-8.135108E0,-5.4123306E0,-1.9372319E0,-7.475162E-1,3.79366E0,9.114403E0,1.6468428E1,1.0109945E1,1.6447035E1,2.5452536E1,5.822689E1,2.4413906E1,3.388844E1,4.960527E1,9.783459E1,3.9990728E0,8.5892725E0,1.34957695E1,1.952687E1,2.6608751E1,3.5584465E1,5.1853046E1,6.4835655E1,3.53678E1,5.8283978E1,8.9493744E1,1.1267487E2,1.4397054E2,4.1250418E2,5.028953E1,6.670854E1,9.363112E1,1.6540918E2,9.971387E1,1.504367E2,1.9615024E2,3.5130884E2,1.829609E2,2.3479272E2,3.147009E2,5.0353925E2],"categories":[],"categories_nodes":[],"categories_segments":[],"categories_sizes":[],"default_left":[0,0,0,0,0,0,0,0,0,0,0,0,0,0,0,0,0,0,0,0,0,0,0,0,0,0,0,0,0,0,0,0,0,0,0,0,0,0,0,0,0,0,0,0,0,0,0,0,0,0,0,0,0,0,0,0,0,0,0,0,0,0,0,0,0,0,0,0,0,0,0,0,0,0,0,0,0,0,0,0,0,0,0,0,0,0,0,0,0,0,0,0,0,0,0,0,0,0,0,0,0,0,0,0,0,0,0,0,0,0,0,0,0,0,0,0,0,0,0],"id":2,"left_children":[1,3,5,7,9,11,13,15,17,19,21,23,25,27,29,31,33,35,37,39,41,43,45,47,49,51,53,55,57,59,-1,61,63,65,67,69,71,73,75,77,79,81,83,85,87,89,91,93,95,97,99,101,-1,103,105,107,109,111,113,115,117,-1,-1,-1,-1,-1,-1,-1,-1,-1,-1,-1,-1,-1,-1,-1,-1,-1,-1,-1,-1,-1,-1,-1,-1,-1,-1,-1,-1,-1,-1,-1,-1,-1,-1,-1,-1,-1,-1,-1,-1,-1,-1,-1,-1,-1,-1,-1,-1,-1,-1,-1,-1,-1,-1,-1,-1,-1,-1],"loss_changes":[5.5901856E8,1.01136024E8,2.2876752E8,1.1478016E7,6.689356E7,8.831456E7,1.0912973E8,2.003824E6,1.0630656E7,2.5265112E7,9.524096E6,4.4653136E7,3.9309296E7,2.6552384E7,1.449952E7,2.64912E5,4.08148E5,1.107292E6,5.704682E6,2.745828E6,6.773042E6,2.268994E6,6.489212E6,4.435926E6,1.0570184E7,3.73614E6,7.73848E6,9.743888E6,1.4708704E7,1.0982128E7,0E0,2.148E4,2.4744E4,2.4964E4,9.183E4,6.70872E5,2.90772E5,1.474093E6,5.629675E5,2.79197E5,5.2986375E5,5.65985E5,1.531766E6,3.197175E5,9.83237E5,6.99732E5,2.795284E6,3.617755E5,5.41176E5,1.01266E6,6.82512E5,2.773864E6,0E0,6.94976E5,2.943672E6,9.06824E5,3.255296E6,6.649104E6,2.95712E6,5.29284E5,2.528912E6,0E0,0E0,0E0,0E0,0E0,0E0,0E0,0E0,0E0,0E0,0E0,0E0,0E0,0E0,0E0,0E0,0E0,0E0,0E0,0E0,0E0,0E0,0E0,0E0,0E0,0E0,0E0,0E0,0E0,0E0,0E0,0E0,0E0,0E0,0E0,0E0,0E0,0E0,0E0,0E0,0E0,0E0,0E0,0E0,0E0,0E0,0E0,0E0,0E0,0E0,0E0,0E0,0E0,0E0,0E0,0E0,0E0,0E0],"parents":[2147483647,0,0,1,1,2,2,3,3,4,4,5,5,6,6,7,7,8,8,9,9,10,10,11,11,12,12,13,13,14,14,15,15,16,16,17,17,18,18,19,19,20,20,21,21,22,22,23,23,24,24,25,25,26,26,27,27,28,28,29,29,31,31,32,32,33,33,34,34,35,35,36,36,37,37,38,38,39,39,40,40,41,41,42,42,43,43,44,44,45,45,46,46,47,47,48,48,49,49,50,50,51,51,53,53,54,54,55,55,56,56,57,57,58,58,59,59,60,60],"right_children":[2,4,6,8,10,12,14,16,18,20,22,24,26,28,30,32,34,36,38,40,42,44,46,48,50,52,54,56,58,60,-1,62,64,66,68,70,72,74,76,78,80,82,84,86,88,90,92,94,96,98,100,102,-1,104,106,108,110,112,114,116,118,-1,-1,-1,-1,-1,-1,-1,-1,-1,-1,-1,-1,-1,-1,-1,-1,-1,-1,-1,-1,-1,-1,-1,-1,-1,-1,-1,-1,-1,-1,-1,-1,-1,-1,-1,-1,-1,-1,-1,-1,-1,-1,-1,-1,-1,-1,-1,-1,-1,-1,-1,-1,-1,-1,-1,-1,-1,-1],"split_conditions":[6.735E1,2.79E1,3E0,2E0,3E0,1.6805E2,2.0615E2,1.225E1,1.225E1,2E0,4.24E1,2E0,2E0,1.089E2,7.918E2,7.25E0,1.89E1,4E0,4E0,4.24E1,4.24E1,4E0,4E0,9.575E1,1.001E2,7.918E2,2.41E2,4E0,5E0,4E0,8.6699603E2,2.75E0,8.75E0,1.59E1,2.27E1,6.6E0,6.85E0,2.02E1,6E0,3.395E1,5.235E1,3.395E1,5.235E1,3.505E1,6E0,5.235E1,6E0,8.35E1,1.1635E2,8.03E1,1.4855E2,2.0615E2,2.1094049E2,2.0615E2,7.918E2,8.35E1,6E0,1.4855E2,7E0,2.532E2,6E0,-2.0183895E1,-1.8826761E1,-1.7624277E1,-1.6674257E1,-1.5572614E1,-1.4746967E1,-1.3737684E1,-1.2230557E1,-1.7414257E1,-1.3655488E1,-1.1960215E1,-4.498073E0,-8.570271E0,-3.7336788E0,7.9426093E0,2.4648838E1,-1.0698393E1,-8.135108E0,-5.4123306E0,-1.9372319E0,-7.475162E-1,3.79366E0,9.114403E0,1.6468428E1,1.0109945E1,1.6447035E1,2.5452536E1,5.822689E1,2.4413906E1,3.388844E1,4.960527E1,9.783459E1,3.9990728E0,8.5892725E0,1.34957695E1,1.952687E1,2.6608751E1,3.5584465E1,5.1853046E1,6.4835655E1,3.53678E1,5.8283978E1,8.9493744E1,1.1267487E2,1.4397054E2,4.1250418E2,5.028953E1,6.670854E1,9.363112E1,1.6540918E2,9.971387E1,1.504367E2,1.9615024E2,3.5130884E2,1.829609E2,2.3479272E2,3.147009E2,5.0353925E2],"split_indices":[2,2,1,1,1,2,2,2,2,1,2,1,1,2,2,2,2,1,1,2,2,1,1,2,2,2,2,1,1,1,0,2,2,2,2,2,2,2,1,2,2,2,2,2,1,2,1,2,2,2,2,2,0,2,2,2,1,2,1,2,1,0,0,0,0,0,0,0,0,0,0,0,0,0,0,0,0,0,0,0,0,0,0,0,0,0,0,0,0,0,0,0,0,0,0,0,0,0,0,0,0,0,0,0,0,0,0,0,0,0,0,0,0,0,0,0,0,0,0],"split_type":[0,0,0,0,0,0,0,0,0,0,0,0,0,0,0,0,0,0,0,0,0,0,0,0,0,0,0,0,0,0,0,0,0,0,0,0,0,0,0,0,0,0,0,0,0,0,0,0,0,0,0,0,0,0,0,0,0,0,0,0,0,0,0,0,0,0,0,0,0,0,0,0,0,0,0,0,0,0,0,0,0,0,0,0,0,0,0,0,0,0,0,0,0,0,0,0,0,0,0,0,0,0,0,0,0,0,0,0,0,0,0,0,0,0,0,0,0,0,0],"sum_hessian":[1.85013E5,1.5821E5,2.6803E4,9.8259E4,5.9951E4,2.3133E4,3.67E3,5.2507E4,4.5752E4,5.1334E4,8.617E3,1.9971E4,3.162E3,3.372E3,2.98E2,2.2932E4,2.9575E4,2.0352E4,2.54E4,3.1191E4,2.0143E4,4.3E3,4.317E3,1.2424E4,7.547E3,1.999E3,1.163E3,2.08E3,1.292E3,2.95E2,3E0,9.55E3,1.3382E4,1.4722E4,1.4853E4,1.84E4,1.952E3,2.3197E4,2.203E3,1.5374E4,1.5817E4,9.879E3,1.0264E4,2.961E3,1.339E3,2.846E3,1.471E3,6.918E3,5.506E3,4.587E3,2.96E3,1.987E3,1.2E1,6.31E2,5.32E2,1.296E3,7.84E2,1.12E3,1.72E2,1.34E2,1.61E2,1.473E3,8.077E3,3.953E3,9.429E3,8.182E3,6.54E3,7.298E3,7.555E3,6.808E3,1.1592E4,7.91E2,1.161E3,1.3312E4,9.885E3,2.004E3,1.99E2,7.376E3,7.998E3,8.182E3,7.635E3,4.964E3,4.915E3,5.518E3,4.746E3,1.725E3,1.236E3,1.251E3,8.8E1,1.479E3,1.367E3,1.353E3,1.18E2,4.585E3,2.333E3,2.346E3,3.16E3,2.432E3,2.155E3,2.511E3,4.49E2,8.08E2,1.179E3,4.4E2,1.91E2,5.29E2,3E0,7.6E2,5.36E2,7.21E2,6.3E1,7.79E2,3.41E2,1.59E2,1.3E1,7.3E1,6.1E1,1.52E2,9E0],"tree_param":{"num_deleted":"0","num_feature":"3","num_nodes":"119","size_leaf_vector":"1"}},{"base_weights":[7.389762E-2,-1.5788217E1,9.370026E1,-3.0330257E1,5.8341155E0,6.782065E1,2.567635E2,-3.340076E1,-1.005578E1,-3.6200063E0,6.2373566E1,5.0560894E1,1.7678174E2,2.0905188E2,5.7968805E2,-3.9906124E1,-2.8248106E1,-2.2718206E1,5.990352E0,-1.580164E1,1.5183843E1,3.596977E1,8.479449E1,2.4752235E1,9.303864E1,1.1697048E2,2.7939832E2,1.8462524E2,3.7253027E2,5.642938E2,6.719219E2,-4.2554134E1,-3.658628E1,-3.34385E1,-1.9826017E1,-3.68914E1,-1.8670511E1,1.6522754E0,4.094279E1,-2.1744793E1,-7.9544187E0,2.2899196E0,2.9206781E1,3.1071272E1,7.959953E1,6.467935E1,1.23331055E2,1.42624855E1,4.1698463E1,7.0228905E1,1.237585E2,9.679476E1,1.8299315E2,2.4126263E2,3.8648856E2,1.3795627E2,2.3733028E2,3.161758E2,5.4016534E2,4.2529742E2,6.896404E2,-1.3879848E1,-1.2399281E1,-1.1731881E1,-9.819662E0,-1.0688532E1,-9.290253E0,-7.1631994E0,-4.6483045E0,-1.5471264E1,-1.0284805E1,-6.4826393E0,1.683319E0,-1.5212849E0,3.168097E0,8.632604E0,1.86481E1,-7.5454135E0,-5.53253E0,-3.2707782E0,-7.3501027E-1,-8.6172813E-1,2.6557946E0,6.760942E0,1.2193338E1,8.243113E0,1.3056083E1,2.1375834E1,3.32761E1,1.5613543E1,2.332728E1,3.5961544E1,1.2632127E2,2.9176912E0,6.806201E0,1.1455666E1,1.7714365E1,1.730825E1,2.3298082E1,3.2343105E1,4.0689846E1,2.4770575E1,3.375421E1,5.198791E1,1.5252621E2,6.2706497E1,8.233866E1,1.128538E2,3.1969077E2,3.696248E1,5.2502216E1,6.055753E1,9.033808E1,9.0297455E1,2.1170744E2,1.4448912E2,2.2373866E2,9.796563E1,1.4661263E2,1.6828564E2,2.5351775E2],"categories":[],"categories_nodes":[],"categories_segments":[],"categories_sizes":[],"default_left":[0,0,0,0,0,0,0,0,0,0,0,0,0,0,0,0,0,0,0,0,0,0,0,0,0,0,0,0,0,0,0,0,0,0,0,0,0,0,0,0,0,0,0,0,0,0,0,0,0,0,0,0,0,0,0,0,0,0,0,0,0,0,0,0,0,0,0,0,0,0,0,0,0,0,0,0,0,0,0,0,0,0,0,0,0,0,0,0,0,0,0,0,0,0,0,0,0,0,0,0,0,0,0,0,0,0,0,0,0,0,0,0,0,0,0,0,0,0,0,0,0],"id":3,"left_children":[1,3,5,7,9,11,13,15,17,19,21,23,25,27,29,31,33,35,37,39,41,43,45,47,49,51,53,55,57,59,-1,61,63,65,67,69,71,73,75,77,79,81,83,85,87,89,91,93,95,97,99,101,103,105,107,109,111,113,115,117,119,-1,-1,-1,-1,-1,-1,-1,-1,-1,-1,-1,-1,-1,-1,-1,-1,-1,-1,-1,-1,-1,-1,-1,-1,-1,-1,-1,-1,-1,-1,-1,-1,-1,-1,-1,-1,-1,-1,-1,-1,-1,-1,-1,-1,-1,-1,-1,-1,-1,-1,-1,-1,-1,-1,-1,-1,-1,-1,-1,-1],"loss_changes":[2.7476797E8,4.974691E7,1.1309579E8,5.888352E6,3.4006544E7,4.3497816E7,5.643885E7,2.752568E6,2.5283415E6,1.2485471E7,5.392416E6,2.1892876E7,1.9380632E7,1.2709536E7,1.0798192E7,3.17616E5,2.003404E6,3.98311E5,8.322094E5,1.542493E6,3.874525E6,8.92373E5,3.812052E6,2.2080945E6,5.280284E6,2.6464E6,4.66048E6,6.81996E6,3.749708E6,7.877968E6,0E0,8.9768E4,1.55254E5,1.52378E5,3.06438E5,5.7359E4,3.8624725E5,2.9256025E5,1.5465831E5,2.11323E5,2.3133431E5,3.7828538E5,7.8223E5,1.673125E5,1.02419E5,5.3131E5,1.689116E6,2.9317338E5,2.872435E5,3.9923E5,5.94216E5,3.3375E5,1.386065E6,8.64228E5,1.727584E6,7.87152E5,2.896936E6,1.638838E6,8.80568E5,1.249264E6,4.426096E6,0E0,0E0,0E0,0E0,0E0,0E0,0E0,0E0,0E0,0E0,0E0,0E0,0E0,0E0,0E0,0E0,0E0,0E0,0E0,0E0,0E0,0E0,0E0,0E0,0E0,0E0,0E0,0E0,0E0,0E0,0E0,0E0,0E0,0E0,0E0,0E0,0E0,0E0,0E0,0E0,0E0,0E0,0E0,0E0,0E0,0E0,0E0,0E0,0E0,0E0,0E0,0E0,0E0,0E0,0E0,0E0,0E0,0E0,0E0,0E0],"parents":[2147483647,0,0,1,1,2,2,3,3,4,4,5,5,6,6,7,7,8,8,9,9,10,10,11,11,12,12,13,13,14,14,15,15,16,16,17,17,18,18,19,19,20,20,21,21,22,22,23,23,24,24,25,25,26,26,27,27,28,28,29,29,31,31,32,32,33,33,34,34,35,35,36,36,37,37,38,38,39,39,40,40,41,41,42,42,43,43,44,44,45,45,46,46,47,47,48,48,49,49,50,50,51,51,52,52,53,53,54,54,55,55,56,56,57,57,58,58,59,59,60,60],"right_children":[2,4,6,8,10,12,14,16,18,20,22,24,26,28,30,32,34,36,38,40,42,44,46,48,50,52,54,56,58,60,-1,62,64,66,68,70,72,74,76,78,80,82,84,86,88,90,92,94,96,98,100,102,104,106,108,110,112,114,116,118,120,-1,-1,-1,-1,-1,-1,-1,-1,-1,-1,-1,-1,-1,-1,-1,-1,-1,-1,-1,-1,-1,-1,-1,-1,-1,-1,-1,-1,-1,-1,-1,-1,-1,-1,-1,-1,-1,-1,-1,-1,-1,-1,-1,-1,-1,-1,-1,-1,-1,-1,-1,-1,-1,-1,-1,-1,-1,-1,-1,-1],"split_conditions":[6.735E1,2.61E1,3E0,3E0,3E0,1.6805E2,1.6805E2,1.205E1,1.46E1,2E0,4.045E1,2E0,2E0,5E0,7.918E2,8.35E0,2E0,5.7E0,5E0,4.39E1,4.24E1,5E0,4E0,1.041E2,9.575E1,2.532E2,2.532E2,9.205E1,1.1635E2,4E0,6.719219E2,3.6E0,2E0,1.865E1,1.89E1,2.2E0,5E0,2.045E1,2.14E1,3.395E1,5.7E1,3.395E1,5.495E1,4E0,6E0,5.115E1,7E0,8.53E1,1.4855E2,7.63E1,1.1635E2,2.0615E2,7.918E2,2.0615E2,7.918E2,4E0,4E0,8E0,1.4855E2,2.0615E2,2.41E2,-1.3879848E1,-1.2399281E1,-1.1731881E1,-9.819662E0,-1.0688532E1,-9.290253E0,-7.1631994E0,-4.6483045E0,-1.5471264E1,-1.0284805E1,-6.4826393E0,1.683319E0,-1.5212849E0,3.168097E0,8.632604E0,1.86481E1,-7.5454135E0,-5.53253E0,-3.2707782E0,-7.3501027E-1,-8.6172813E-1,2.6557946E0,6.760942E0,1.2193338E1,8.243113E0,1.3056083E1,2.1375834E1,3.32761E1,1.5613543E1,2.332728E1,3.5961544E1,1.2632127E2,2.9176912E0,6.806201E0,1.1455666E1,1.7714365E1,1.730825E1,2.3298082E1,3.2343105E1,4.0689846E1,2.4770575E1,3.375421E1,5.198791E1,1.5252621E2,6.2706497E1,8.233866E1,1.128538E2,3.1969077E2,3.696248E1,5.2502216E1,6.055753E1,9.033808E1,9.0297455E1,2.1170744E2,1.4448912E2,2.2373866E2,9.796563E1,1.4661263E2,1.6828564E2,2.5351775E2],"split_indices":[2,2,1,1,1,2,2,2,2,1,2,1,1,1,2,2,1,2,1,2,2,1,1,2,2,2,2,2,2,1,0,2,1,2,2,2,1,2,2,2,2,2,2,1,1,2,1,2,2,2,2,2,2,2,2,1,1,1,2,2,2,0,0,0,0,0,0,0,0,0,0,0,0,0,0,0,0,0,0,0,0,0,0,0,0,0,0,0,0,0,0,0,0,0,0,0,0,0,0,0,0,0,0,0,0,0,0,0,0,0,0,0,0,0,0,0,0,0,0,0,0],"split_type":[0,0,0,0,0,0,0,0,0,0,0,0,0,0,0,0,0,0,0,0,0,0,0,0,0,0,0,0,0,0,0,0,0,0,0,0,0,0,0,0,0,0,0,0,0,0,0,0,0,0,0,0,0,0,0,0,0,0,0,0,0,0,0,0,0,0,0,0,0,0,0,0,0,0,0,0,0,0,0,0,0,0,0,0,0,0,0,0,0,0,0,0,0,0,0,0,0,0,0,0,0,0,0,0,0,0,0,0,0,0,0,0,0,0,0,0,0,0,0,0,0],"sum_hessian":[1.85013E5,1.5821E5,2.6803E4,9.4592E4,6.3618E4,2.3133E4,3.67E3,8.215E4,1.2442E4,5.4505E4,9.113E3,1.9971E4,3.162E3,3.199E3,4.71E2,3.6306E4,4.5844E4,6.954E3,5.488E3,3.3077E4,2.1428E4,4.186E3,4.927E3,1.2424E4,7.547E3,1.999E3,1.163E3,2.785E3,4.14E2,4.68E2,3E0,2.019E4,1.6116E4,2.8362E4,1.7482E4,1.543E3,5.411E3,4.883E3,6.05E2,1.8821E4,1.4256E4,1.1164E4,1.0264E4,3.765E3,4.21E2,3.239E3,1.688E3,7.675E3,4.749E3,4.333E3,3.214E3,1.533E3,4.66E2,8.6E2,3.03E2,1.479E3,1.306E3,3.12E2,1.02E2,2.24E2,2.44E2,4.995E3,1.5195E4,9.739E3,6.377E3,1.5029E4,1.3333E4,9.031E3,8.451E3,2.3E2,1.313E3,4.827E3,5.84E2,2.783E3,2.1E3,3.86E2,2.19E2,9.262E3,9.559E3,9.283E3,4.973E3,6.249E3,4.915E3,6.485E3,3.779E3,2.924E3,8.41E2,3.35E2,8.6E1,1.65E3,1.589E3,1.67E3,1.8E1,4.99E3,2.685E3,3.952E3,7.97E2,1.616E3,2.717E3,1.376E3,1.838E3,8.08E2,7.25E2,4.54E2,1.2E1,4.4E2,4.2E2,3E2,3E0,1.061E3,4.18E2,8.42E2,4.64E2,3.02E2,1E1,8.2E1,2E1,9E1,1.34E2,1.36E2,1.08E2],"tree_param":{"num_deleted":"0","num_feature":"3","num_nodes":"121","size_leaf_vector":"1"}},{"base_weights":[7.032971E-2,-9.853484E0,7.4126495E1,-1.8892973E1,1.0359072E1,5.4000286E1,2.0094931E2,-2.1466621E1,-2.2174737E0,2.7237372E0,5.6488483E1,3.9898926E1,1.2401298E2,1.7053146E2,4.7454654E2,-2.6465336E1,-1.595804E1,-1.1598901E1,1.5932193E1,-7.098165E0,1.8199095E1,4.892217E1,1.15171715E2,2.0493113E1,7.1876465E1,8.201086E1,1.9607501E2,1.2884515E2,2.2943425E2,4.5589938E2,5.2073944E2,-2.9789194E1,-2.4300207E1,-2.0724453E1,-8.67531E0,-1.8828762E1,-3.0437443E0,1.2423595E1,4.6215797E1,-1.116432E1,-6.997254E-1,9.665579E0,2.971584E1,3.942497E1,7.708026E1,8.856346E1,1.7413809E2,1.2268221E1,2.919506E1,5.7551666E1,9.151853E1,6.779449E1,1.2853313E2,1.6905229E2,2.719648E2,1.0382476E2,1.6925331E2,2.0026279E2,3.810175E2,3.9750327E2,7.421513E2,-1.0512959E1,-8.784831E0,-7.960321E0,-6.187468E0,-6.854861E0,-5.432832E0,-3.6322873E0,-6.03252E-1,-8.670189E0,-4.9779453E0,-2.560582E0,2.727254E0,1.5679206E0,4.9562488E0,1.1836429E1,2.0529543E1,-4.341722E0,-2.86577E0,-1.0839139E0,1.5330474E0,1.0855354E0,3.667178E0,7.642802E0,1.2089331E1,1.0086626E1,1.4926543E1,1.9623417E1,3.161898E1,2.238763E1,4.0388462E1,4.3570946E1,8.129132E1,1.1463846E0,4.4274087E0,8.019834E0,1.2406718E1,1.509079E1,1.9565678E1,2.6171206E1,3.324835E1,1.734859E1,2.3641895E1,3.6425816E1,1.1028817E2,4.3937206E1,5.7695724E1,7.911014E1,2.4776033E2,2.9514925E1,3.521931E1,4.7462234E1,6.88989E1,5.80136E1,1.832922E2,1.1047121E2,3.024122E2,9.276226E1,1.5217915E2,1.9476094E2,3.1191867E2],"categories":[],"categories_nodes":[],"categories_segments":[],"categories_sizes":[],"default_left":[0,0,0,0,0,0,0,0,0,0,0,0,0,0,0,0,0,0,0,0,0,0,0,0,0,0,0,0,0,0,0,0,0,0,0,0,0,0,0,0,0,0,0,0,0,0,0,0,0,0,0,0,0,0,0,0,0,0,0,0,0,0,0,0,0,0,0,0,0,0,0,0,0,0,0,0,0,0,0,0,0,0,0,0,0,0,0,0,0,0,0,0,0,0,0,0,0,0,0,0,0,0,0,0,0,0,0,0,0,0,0,0,0,0,0,0,0,0,0,0,0],"id":4,"left_children":[1,3,5,7,9,11,13,15,17,19,21,23,25,27,29,31,33,35,37,39,41,43,45,47,49,51,53,55,57,59,-1,61,63,65,67,69,71,73,75,77,79,81,83,85,87,89,91,93,95,97,99,101,103,105,107,109,111,113,115,117,119,-1,-1,-1,-1,-1,-1,-1,-1,-1,-1,-1,-1,-1,-1,-1,-1,-1,-1,-1,-1,-1,-1,-1,-1,-1,-1,-1,-1,-1,-1,-1,-1,-1,-1,-1,-1,-1,-1,-1,-1,-1,-1,-1,-1,-1,-1,-1,-1,-1,-1,-1,-1,-1,-1,-1,-1,-1,-1,-1,-1],"loss_changes":[1.3597115E8,2.980989E7,5.579364E7,4.838184E6,1.7757746E7,1.8624916E7,2.4835856E7,2.68878E6,2.5668312E6,6.575387E6,3.173518E6,9.746128E6,9.557556E6,6.590312E6,6.240752E6,3.67736E5,1.612702E6,6.146336E5,5.452475E5,6.885074E5,1.650395E6,1.693492E6,1.266445E6,6.99407E5,1.663812E6,1.314042E6,2.3411E6,1.580862E6,4.85854E6,4.652932E6,0E0,5.2698E4,2.54078E5,1.55646E5,4.2045562E5,1.20796E5,3.0347788E5,1.3570862E5,7.7358375E4,8.6136E4,1.7408602E5,1.4923212E5,3.19673E5,2.828255E5,5.21448E5,3.52712E5,6.686985E5,1.0568875E5,1.4112375E5,1.87527E5,1.96998E5,1.63788E5,7.496625E5,4.24472E5,1.173826E6,6.0759E4,3.66034E5,2.53394E6,1.06321E6,2.246616E6,6.80312E5,0E0,0E0,0E0,0E0,0E0,0E0,0E0,0E0,0E0,0E0,0E0,0E0,0E0,0E0,0E0,0E0,0E0,0E0,0E0,0E0,0E0,0E0,0E0,0E0,0E0,0E0,0E0,0E0,0E0,0E0,0E0,0E0,0E0,0E0,0E0,0E0,0E0,0E0,0E0,0E0,0E0,0E0,0E0,0E0,0E0,0E0,0E0,0E0,0E0,0E0,0E0,0E0,0E0,0E0,0E0,0E0,0E0,0E0,0E0,0E0],"parents":[2147483647,0,0,1,1,2,2,3,3,4,4,5,5,6,6,7,7,8,8,9,9,10,10,11,11,12,12,13,13,14,14,15,15,16,16,17,17,18,18,19,19,20,20,21,21,22,22,23,23,24,24,25,25,26,26,27,27,28,28,29,29,31,31,32,32,33,33,34,34,35,35,36,36,37,37,38,38,39,39,40,40,41,41,42,42,43,43,44,44,45,45,46,46,47,47,48,48,49,49,50,50,51,51,52,52,53,53,54,54,55,55,56,56,57,57,58,58,59,59,60,60],"right_children":[2,4,6,8,10,12,14,16,18,20,22,24,26,28,30,32,34,36,38,40,42,44,46,48,50,52,54,56,58,60,-1,62,64,66,68,70,72,74,76,78,80,82,84,86,88,90,92,94,96,98,100,102,104,106,108,110,112,114,116,118,120,-1,-1,-1,-1,-1,-1,-1,-1,-1,-1,-1,-1,-1,-1,-1,-1,-1,-1,-1,-1,-1,-1,-1,-1,-1,-1,-1,-1,-1,-1,-1,-1,-1,-1,-1,-1,-1,-1,-1,-1,-1,-1,-1,-1,-1,-1,-1,-1,-1,-1,-1,-1,-1,-1,-1,-1,-1,-1,-1,-1],"split_conditions":[7.63E1,3.395E1,3E0,3E0,3E0,1.6805E2,2.0615E2,1.63E1,2.02E1,2E0,5E0,2E0,2E0,4E0,7.918E2,8.35E0,2E0,1.175E1,5E0,5.235E1,5.115E1,5.85E1,5.61E1,1.041E2,1.089E2,2.532E2,2.532E2,1.136E2,1.4855E2,5E0,5.2073944E2,2.2E0,2E0,2.375E1,2.61E1,4.4E0,4E0,2.42E1,6E0,3.955E1,6.43E1,3.885E1,6.43E1,4.845E1,4E0,6E0,6E0,8.03E1,1.4855E2,8.64E1,1.4855E2,2.0615E2,7.918E2,2.0615E2,7.918E2,9.575E1,1.6805E2,8E0,7E0,2.532E2,6E0,-1.0512959E1,-8.784831E0,-7.960321E0,-6.187468E0,-6.854861E0,-5.432832E0,-3.6322873E0,-6.03252E-1,-8.670189E0,-4.9779453E0,-2.560582E0,2.727254E0,1.5679206E0,4.9562488E0,1.1836429E1,2.0529543E1,-4.341722E0,-2.86577E0,-1.0839139E0,1.5330474E0,1.0855354E0,3.667178E0,7.642802E0,1.2089331E1,1.0086626E1,1.4926543E1,1.9623417E1,3.161898E1,2.238763E1,4.0388462E1,4.3570946E1,8.129132E1,1.1463846E0,4.4274087E0,8.019834E0,1.2406718E1,1.509079E1,1.9565678E1,2.6171206E1,3.324835E1,1.734859E1,2.3641895E1,3.6425816E1,1.1028817E2,4.3937206E1,5.7695724E1,7.911014E1,2.4776033E2,2.9514925E1,3.521931E1,4.7462234E1,6.88989E1,5.80136E1,1.832922E2,1.1047121E2,3.024122E2,9.276226E1,1.5217915E2,1.9476094E2,3.1191867E2],"split_indices":[2,2,1,1,1,2,2,2,2,1,1,1,1,1,2,2,1,2,1,2,2,2,2,2,2,2,2,2,2,1,0,2,1,2,2,2,1,2,1,2,2,2,2,2,1,1,1,2,2,2,2,2,2,2,2,2,2,1,1,2,1,0,0,0,0,0,0,0,0,0,0,0,0,0,0,0,0,0,0,0,0,0,0,0,0,0,0,0,0,0,0,0,0,0,0,0,0,0,0,0,0,0,0,0,0,0,0,0,0,0,0,0,0,0,0,0,0,0,0,0,0],"split_type":[0,0,0,0,0,0,0,0,0,0,0,0,0,0,0,0,0,0,0,0,0,0,0,0,0,0,0,0,0,0,0,0,0,0,0,0,0,0,0,0,0,0,0,0,0,0,0,0,0,0,0,0,0,0,0,0,0,0,0,0,0,0,0,0,0,0,0,0,0,0,0,0,0,0,0,0,0,0,0,0,0,0,0,0,0,0,0,0,0,0,0,0,0,0,0,0,0,0,0,0,0,0,0,0,0,0,0,0,0,0,0,0,0,0,0,0,0,0,0,0,0],"sum_hessian":[1.85013E5,1.63151E5,2.1862E4,1.12734E5,5.0417E4,1.8869E4,2.993E3,9.7661E4,1.5073E4,4.3258E4,7.159E3,1.5707E4,3.162E3,2.695E3,2.98E2,5.1198E4,4.6463E4,9.937E3,5.136E3,2.6463E4,1.6795E4,6.343E3,8.16E2,9.776E3,5.931E3,1.999E3,1.163E3,1.58E3,1.115E3,2.95E2,3E0,2.019E4,3.1008E4,2.8082E4,1.8381E4,5.385E3,4.552E3,4.604E3,5.32E2,1.618E4,1.0283E4,9.648E3,7.147E3,4.745E3,1.598E3,5.64E2,2.52E2,5.027E3,4.749E3,3.432E3,2.499E3,1.533E3,4.66E2,8.6E2,3.03E2,9.78E2,6.02E2,9.37E2,1.78E2,2.47E2,4.8E1,1.769E3,1.8421E4,1.9281E4,1.1727E4,1.5488E4,1.2594E4,1.2132E4,6.249E3,9.76E2,4.409E3,3.134E3,1.418E3,1.671E3,2.933E3,4.1E2,1.22E2,5.298E3,1.0882E4,6.849E3,3.434E3,2.869E3,6.779E3,5.105E3,2.042E3,3.041E3,1.704E3,1.134E3,4.64E2,4.35E2,1.29E2,1.96E2,5.6E1,1.145E3,3.882E3,3.952E3,7.97E2,1.768E3,1.664E3,2.05E3,4.49E2,8.08E2,7.25E2,4.54E2,1.2E1,4.4E2,4.2E2,3E2,3E0,7.04E2,2.74E2,5.12E2,9E1,9.23E2,1.4E1,1.76E2,2E0,1.39E2,1.08E2,3.9E1,9E0],"tree_param":{"num_deleted":"0","num_feature":"3","num_nodes":"121","size_leaf_vector":"1"}},{"base_weights":[6.599115E-2,-6.4864388E0,5.546347E1,-1.27941885E1,9.003433E0,4.5891098E1,2.063674E2,-1.6498291E1,-6.5760293E0,3.3281665E0,4.3273975E1,2.3724493E1,7.620209E1,1.4995784E2,3.4200464E2,-1.7179043E1,-1.2557509E0,-9.464242E0,1.1394409E1,-4.0307035E0,1.4807447E1,3.758097E1,8.7757675E1,1.5895761E1,5.7501446E1,6.2049885E1,1.6021329E2,1.1510747E2,2.2538167E2,2.9358133E2,5.692964E2,-2.0009174E1,-1.4615765E1,-1.0679639E1,4.9055395E0,-1.3317196E1,-3.605601E0,6.4354005E0,2.2697905E1,-6.295496E0,2.421649E0,1.0530896E1,2.7367954E1,3.0205381E1,5.9320873E1,8.227416E1,7.6501144E1,1.1548996E1,2.3415405E1,4.748285E1,9.028735E1,5.462658E1,9.214753E1,1.5714154E2,2.4413512E2,6.5648445E1,1.2126995E2,2.1138503E2,4.3990125E2,2.3289642E2,4.508659E2,5.213375E2,3.872246E2,-6.430911E0,-5.4644985E0,-5.225798E0,-3.2827315E0,-3.685727E0,3.0259664E0,1.2579192E0,2.6641405E1,-4.501493E0,-3.581363E0,-1.9395852E0,1.9009966E-1,2.0909043E-1,3.077772E0,6.6047664E0,2.851829E1,-2.5306275E0,-1.3045003E0,1.3418626E0,-1.9211996E-1,1.8383685E0,4.3390775E0,7.437792E0,9.4409075E0,7.868194E0,1.2430374E1,1.5768128E1,2.3588413E1,1.9656837E1,3.3983856E1,2.6524112E0,4.2867694E0,1.1521012E1,5.569292E0,1.2150443E1,1.6559092E1,2.5522089E1,7.974682E1,1.29965105E1,2.0238377E1,2.3062174E1,3.628328E1,4.1226757E1,5.9350246E1,1.6672497E1,2.211977E1,3.265617E1,4.007926E1,4.0968998E1,6.783602E1,1.0415789E2,2.0850102E2,9.736507E1,6.3110245E1,1.2594505E2,2.7609573E2,1.4300772E2,2.0505019E2],"categories":[],"categories_nodes":[],"categories_segments":[],"categories_sizes":[],"default_left":[0,0,0,0,0,0,0,0,0,0,0,0,0,0,0,0,0,0,0,0,0,0,0,0,0,0,0,0,0,0,0,0,0,0,0,0,0,0,0,0,0,0,0,0,0,0,0,0,0,0,0,0,0,0,0,0,0,0,0,0,0,0,0,0,0,0,0,0,0,0,0,0,0,0,0,0,0,0,0,0,0,0,0,0,0,0,0,0,0,0,0,0,0,0,0,0,0,0,0,0,0,0,0,0,0,0,0,0,0,0,0,0,0,0,0,0,0,0,0,0,0],"id":5,"left_children":[1,3,5,7,9,11,13,15,17,19,21,23,25,27,29,31,33,35,37,39,41,43,45,47,49,51,53,55,57,59,61,63,65,67,69,71,73,75,77,79,81,83,85,87,89,91,-1,93,95,97,99,101,103,105,-1,107,109,111,113,115,117,119,-1,-1,-1,-1,-1,-1,-1,-1,-1,-1,-1,-1,-1,-1,-1,-1,-1,-1,-1,-1,-1,-1,-1,-1,-1,-1,-1,-1,-1,-1,-1,-1,-1,-1,-1,-1,-1,-1,-1,-1,-1,-1,-1,-1,-1,-1,-1,-1,-1,-1,-1,-1,-1,-1,-1,-1,-1,-1,-1],"loss_changes":[6.715824E7,1.616522E7,2.825812E7,2.707848E6,9.311667E6,1.2363012E7,8.877704E6,7.64498E5,2.27821E6,3.469936E6,1.719281E6,2.8102495E6,9.231716E6,2.14524E6,3.596992E6,5.11354E5,1.8300988E5,8.535525E5,3.4055094E5,3.6579922E5,8.6163275E5,9.65407E5,6.861E5,2.8187625E5,6.5265E5,1.48163E6,2.120634E6,1.648545E5,6.87676E5,2.605718E6,1.368488E6,8.5434E4,3.80984E5,4.1681688E4,1.1356091E5,5.292725E4,1.8189697E5,9.27233E4,8.935825E4,7.716556E4,4.085419E4,2.0721438E5,4.2265E4,2.0019825E5,1.95179E5,3.810755E5,0E0,4.047325E4,2.2911738E5,8.037825E4,4.0478125E5,7.71881E5,5.69079E5,8.68314E5,0E0,1.1955938E3,6.2446E4,2.40335E5,1.13451E5,3.59152E5,7.50569E5,8.6848E4,0E0,0E0,0E0,0E0,0E0,0E0,0E0,0E0,0E0,0E0,0E0,0E0,0E0,0E0,0E0,0E0,0E0,0E0,0E0,0E0,0E0,0E0,0E0,0E0,0E0,0E0,0E0,0E0,0E0,0E0,0E0,0E0,0E0,0E0,0E0,0E0,0E0,0E0,0E0,0E0,0E0,0E0,0E0,0E0,0E0,0E0,0E0,0E0,0E0,0E0,0E0,0E0,0E0,0E0,0E0,0E0,0E0,0E0,0E0],"parents":[2147483647,0,0,1,1,2,2,3,3,4,4,5,5,6,6,7,7,8,8,9,9,10,10,11,11,12,12,13,13,14,14,15,15,16,16,17,17,18,18,19,19,20,20,21,21,22,22,23,23,24,24,25,25,26,26,27,27,28,28,29,29,30,30,31,31,32,32,33,33,34,34,35,35,36,36,37,37,38,38,39,39,40,40,41,41,42,42,43,43,44,44,45,45,47,47,48,48,49,49,50,50,51,51,52,52,53,53,55,55,56,56,57,57,58,58,59,59,60,60,61,61],"right_children":[2,4,6,8,10,12,14,16,18,20,22,24,26,28,30,32,34,36,38,40,42,44,46,48,50,52,54,56,58,60,62,64,66,68,70,72,74,76,78,80,82,84,86,88,90,92,-1,94,96,98,100,102,104,106,-1,108,110,112,114,116,118,120,-1,-1,-1,-1,-1,-1,-1,-1,-1,-1,-1,-1,-1,-1,-1,-1,-1,-1,-1,-1,-1,-1,-1,-1,-1,-1,-1,-1,-1,-1,-1,-1,-1,-1,-1,-1,-1,-1,-1,-1,-1,-1,-1,-1,-1,-1,-1,-1,-1,-1,-1,-1,-1,-1,-1,-1,-1,-1,-1],"split_conditions":[8.03E1,3.68E1,4E0,1.975E1,3E0,2E0,1.4855E2,4E0,3E0,2E0,5E0,1.6805E2,1.9375E2,5E0,2.532E2,1.065E1,9.3E0,2E0,4E0,6.01E1,6.01E1,6.01E1,7E0,1.1635E2,2.532E2,3E0,7.918E2,8.53E1,8E0,5E0,7.918E2,2E0,2E0,6E0,8E0,2.545E1,2.84E1,2.52E1,7E0,4.65E1,7.155E1,4.65E1,7.255E1,4E0,4E0,5.76E1,7.6501144E1,9.205E1,1.2515E2,2.0615E2,7.918E2,1.11E2,1.1915E2,2.532E2,2.4413512E2,8.2E1,1.11E2,8.64E1,1.2765E2,1.5865E2,7E0,5E0,3.872246E2,-6.430911E0,-5.4644985E0,-5.225798E0,-3.2827315E0,-3.685727E0,3.0259664E0,1.2579192E0,2.6641405E1,-4.501493E0,-3.581363E0,-1.9395852E0,1.9009966E-1,2.0909043E-1,3.077772E0,6.6047664E0,2.851829E1,-2.5306275E0,-1.3045003E0,1.3418626E0,-1.9211996E-1,1.8383685E0,4.3390775E0,7.437792E0,9.4409075E0,7.868194E0,1.2430374E1,1.5768128E1,2.3588413E1,1.9656837E1,3.3983856E1,2.6524112E0,4.2867694E0,1.1521012E1,5.569292E0,1.2150443E1,1.6559092E1,2.5522089E1,7.974682E1,1.29965105E1,2.0238377E1,2.3062174E1,3.628328E1,4.1226757E1,5.9350246E1,1.6672497E1,2.211977E1,3.265617E1,4.007926E1,4.0968998E1,6.783602E1,1.0415789E2,2.0850102E2,9.736507E1,6.3110245E1,1.2594505E2,2.7609573E2,1.4300772E2,2.0505019E2],"split_indices":[2,2,1,2,1,1,2,1,1,1,1,2,2,1,2,2,2,1,1,2,2,2,1,2,2,1,2,2,1,1,2,1,1,1,1,2,2,2,1,2,2,2,2,1,1,2,0,2,2,2,2,2,2,2,0,2,2,2,2,2,1,1,0,0,0,0,0,0,0,0,0,0,0,0,0,0,0,0,0,0,0,0,0,0,0,0,0,0,0,0,0,0,0,0,0,0,0,0,0,0,0,0,0,0,0,0,0,0,0,0,0,0,0,0,0,0,0,0,0,0,0],"split_type":[0,0,0,0,0,0,0,0,0,0,0,0,0,0,0,0,0,0,0,0,0,0,0,0,0,0,0,0,0,0,0,0,0,0,0,0,0,0,0,0,0,0,0,0,0,0,0,0,0,0,0,0,0,0,0,0,0,0,0,0,0,0,0,0,0,0,0,0,0,0,0,0,0,0,0,0,0,0,0,0,0,0,0,0,0,0,0,0,0,0,0,0,0,0,0,0,0,0,0,0,0,0,0,0,0,0,0,0,0,0,0,0,0,0,0,0,0,0,0,0,0],"sum_hessian":[1.85013E5,1.65445E5,1.9568E4,1.17569E5,4.7876E4,1.8402E4,1.166E3,7.3678E4,4.3891E4,4.1075E4,6.801E3,1.063E4,7.772E3,8.25E2,3.41E2,7.0528E4,3.15E3,3.7814E4,6.077E3,2.503E4,1.6045E4,6.031E3,7.7E2,8.631E3,1.999E3,6.653E3,1.119E3,5.66E2,2.59E2,2.83E2,5.8E1,3.3516E4,3.7012E4,1.245E3,1.905E3,2.2811E4,1.5003E4,4.225E3,1.852E3,1.8527E4,6.503E3,1.1971E4,4.074E3,4.505E3,1.526E3,7.47E2,2.3E1,5.471E3,3.16E3,1.533E3,4.66E2,5.339E3,1.314E3,1.115E3,4E0,6.4E1,5.02E2,2.45E2,1.4E1,2.06E2,7.7E1,5.6E1,2E0,1.8661E4,1.4855E4,2.0989E4,1.6023E4,1.156E3,8.9E1,1.89E3,1.5E1,1.0254E4,1.2557E4,8.959E3,6.044E3,1.69E3,2.535E3,1.836E3,1.6E1,8.825E3,9.702E3,3.894E3,2.609E3,5.649E3,6.322E3,2.507E3,1.567E3,3.329E3,1.176E3,1.133E3,3.93E2,4.87E2,2.6E2,2.754E3,2.717E3,7.71E2,2.389E3,8.08E2,7.25E2,4.54E2,1.2E1,2.841E3,2.498E3,8.61E2,4.53E2,7.54E2,3.61E2,3.2E1,3.2E1,2.55E2,2.47E2,4.2E1,2.03E2,1.2E1,2E0,3.8E1,1.68E2,7.4E1,3E0,4.7E1,9E0],"tree_param":{"num_deleted":"0","num_feature":"3","num_nodes":"121","size_leaf_vector":"1"}},{"base_weights":[6.06336E-2,-4.156924E0,4.270018E1,-8.726833E0,7.6592355E0,3.102939E1,1.16146614E2,-1.1215865E1,-3.6208122E0,3.465125E0,3.3226494E1,1.872277E1,5.191964E1,9.572311E1,2.5134563E2,-1.2200855E1,-4.7252965E0,-5.7929535E0,9.71631E0,-1.9482704E0,1.1965263E1,2.8770563E1,6.7528625E1,1.4216905E1,4.8395874E1,4.1194813E1,1.0192882E2,8.20369E1,1.886711E2,2.3915524E2,3.2717926E2,-1.3909661E1,-1.0282358E1,-8.765674E0,5.063104E-1,-8.762061E0,-1.2708921E0,6.089177E0,1.8046526E1,-3.7115545E0,3.3367503E0,8.573198E0,2.1424452E1,2.2334484E1,4.258178E1,6.311404E1,1.850389E2,1.1207626E1,2.5917257E1,4.6770462E1,5.7663082E1,3.7636505E1,6.074662E1,1.0030449E2,1.370839E2,7.169618E1,1.23855316E2,1.7268556E2,4.3186154E2,2.2523276E2,1.8444464E2,-4.8286486E0,-3.9008172E0,-3.5565867E0,-2.3000152E0,-3.0834565E0,1.0560598E0,-8.536236E-2,8.405776E0,-2.8363845E0,-2.2438302E0,-1.0584762E0,1.9166513E-1,5.4519904E-1,2.3817346E0,4.955692E0,1.0967522E1,-1.4896841E0,-6.0495234E-1,2.1892648E0,4.4263113E-1,1.7465453E0,3.7434223E0,5.877639E0,7.161396E0,5.813174E0,9.208285E0,1.1396698E1,1.661706E1,1.5514679E1,2.5864983E1,3.8445713E1,6.484166E1,2.8685815E0,4.3869567E0,1.1167555E1,6.6332316E0,1.1598208E1,1.7882298E1,1.2214144E1,8.6694765E0,2.6507338E1,1.4041814E1,2.4044722E1,3.468933E1,1.9339674E1,2.5691359E1,5.3513844E1,3.1538385E1,4.284687E1,6.2726734E1,8.025844E1,2.1210684E2,5.2544643E1,8.038571E1],"categories":[],"categories_nodes":[],"categories_segments":[],"categories_sizes":[],"default_left":[0,0,0,0,0,0,0,0,0,0,0,0,0,0,0,0,0,0,0,0,0,0,0,0,0,0,0,0,0,0,0,0,0,0,0,0,0,0,0,0,0,0,0,0,0,0,0,0,0,0,0,0,0,0,0,0,0,0,0,0,0,0,0,0,0,0,0,0,0,0,0,0,0,0,0,0,0,0,0,0,0,0,0,0,0,0,0,0,0,0,0,0,0,0,0,0,0,0,0,0,0,0,0,0,0,0,0,0,0,0,0,0,0,0,0],"id":6,"left_children":[1,3,5,7,9,11,13,15,17,19,21,23,25,27,29,31,33,35,37,39,41,43,45,47,49,51,53,55,57,59,-1,61,63,65,67,69,71,73,75,77,79,81,83,85,87,89,91,93,95,97,-1,99,101,103,-1,105,107,109,111,113,-1,-1,-1,-1,-1,-1,-1,-1,-1,-1,-1,-1,-1,-1,-1,-1,-1,-1,-1,-1,-1,-1,-1,-1,-1,-1,-1,-1,-1,-1,-1,-1,-1,-1,-1,-1,-1,-1,-1,-1,-1,-1,-1,-1,-1,-1,-1,-1,-1,-1,-1,-1,-1,-1,-1],"loss_changes":[3.3272122E7,9.091411E6,1.4270976E7,1.542939E6,5.034959E6,3.693645E6,6.279846E6,5.21752E5,1.152748E6,1.8562068E6,1.009452E6,1.2086558E6,2.852885E6,2.509652E6,2.798188E6,2.32176E5,2.2736117E5,4.5940312E5,1.6827719E5,2.2967895E5,5.0340875E5,5.19767E5,3.825785E5,2.7624588E5,2.6964875E5,3.02993E5,4.96232E5,7.40093E5,9.12856E5,1.409644E6,0E0,7.4087E4,1.37275E5,1.1281372E5,1.0201254E5,1.8276875E4,5.8473094E4,3.0679469E4,4.7185688E4,3.9272703E4,4.5446758E4,1.2406125E5,1.8102875E4,9.8243625E4,1.073715E5,1.88828E5,2.0068875E4,3.49855E4,6.830475E4,1.205415E5,0E0,9.8721E4,2.552975E5,2.80185E5,0E0,1.34701E5,3.304615E5,2.310425E5,4.891245E5,5.67123E5,0E0,0E0,0E0,0E0,0E0,0E0,0E0,0E0,0E0,0E0,0E0,0E0,0E0,0E0,0E0,0E0,0E0,0E0,0E0,0E0,0E0,0E0,0E0,0E0,0E0,0E0,0E0,0E0,0E0,0E0,0E0,0E0,0E0,0E0,0E0,0E0,0E0,0E0,0E0,0E0,0E0,0E0,0E0,0E0,0E0,0E0,0E0,0E0,0E0,0E0,0E0,0E0,0E0,0E0,0E0],"parents":[2147483647,0,0,1,1,2,2,3,3,4,4,5,5,6,6,7,7,8,8,9,9,10,10,11,11,12,12,13,13,14,14,15,15,16,16,17,17,18,18,19,19,20,20,21,21,22,22,23,23,24,24,25,25,26,26,27,27,28,28,29,29,31,31,32,32,33,33,34,34,35,35,36,36,37,37,38,38,39,39,40,40,41,41,42,42,43,43,44,44,45,45,46,46,47,47,48,48,49,49,51,51,52,52,53,53,55,55,56,56,57,57,58,58,59,59],"right_children":[2,4,6,8,10,12,14,16,18,20,22,24,26,28,30,32,34,36,38,40,42,44,46,48,50,52,54,56,58,60,-1,62,64,66,68,70,72,74,76,78,80,82,84,86,88,90,92,94,96,98,-1,100,102,104,-1,106,108,110,112,114,-1,-1,-1,-1,-1,-1,-1,-1,-1,-1,-1,-1,-1,-1,-1,-1,-1,-1,-1,-1,-1,-1,-1,-1,-1,-1,-1,-1,-1,-1,-1,-1,-1,-1,-1,-1,-1,-1,-1,-1,-1,-1,-1,-1,-1,-1,-1,-1,-1,-1,-1,-1,-1,-1,-1],"split_conditions":[8.64E1,3.885E1,3E0,2.19E1,3E0,2E0,2.0615E2,3E0,3E0,2E0,5E0,2.0615E2,1.9375E2,5E0,7.918E2,1.225E1,1.285E1,2E0,4E0,6.43E1,6.32E1,6.01E1,7E0,1.4855E2,7.918E2,1.4855E2,7.918E2,1.4855E2,8E0,6E0,3.2717926E2,5.95E0,2E0,5E0,6E0,3.14E1,2.84E1,2.61E1,6E0,5.115E1,7.155E1,5.115E1,7.63E1,4E0,4E0,6.01E1,5.495E1,1.1915E2,1.5865E2,2.532E2,5.7663082E1,1.2515E2,1.5865E2,2.41E2,1.370839E2,4E0,1.5865E2,1.1915E2,1.2765E2,4E0,1.8444464E2,-4.8286486E0,-3.9008172E0,-3.5565867E0,-2.3000152E0,-3.0834565E0,1.0560598E0,-8.536236E-2,8.405776E0,-2.8363845E0,-2.2438302E0,-1.0584762E0,1.9166513E-1,5.4519904E-1,2.3817346E0,4.955692E0,1.0967522E1,-1.4896841E0,-6.0495234E-1,2.1892648E0,4.4263113E-1,1.7465453E0,3.7434223E0,5.877639E0,7.161396E0,5.813174E0,9.208285E0,1.1396698E1,1.661706E1,1.5514679E1,2.5864983E1,3.8445713E1,6.484166E1,2.8685815E0,4.3869567E0,1.1167555E1,6.6332316E0,1.1598208E1,1.7882298E1,1.2214144E1,8.6694765E0,2.6507338E1,1.4041814E1,2.4044722E1,3.468933E1,1.9339674E1,2.5691359E1,5.3513844E1,3.1538385E1,4.284687E1,6.2726734E1,8.025844E1,2.1210684E2,5.2544643E1,8.038571E1],"split_indices":[2,2,1,2,1,1,2,1,1,1,1,2,2,1,2,2,2,1,1,2,2,2,1,2,2,2,2,2,1,1,0,2,1,1,1,2,2,2,1,2,2,2,2,1,1,2,2,2,2,2,0,2,2,2,0,1,2,2,2,1,0,0,0,0,0,0,0,0,0,0,0,0,0,0,0,0,0,0,0,0,0,0,0,0,0,0,0,0,0,0,0,0,0,0,0,0,0,0,0,0,0,0,0,0,0,0,0,0,0,0,0,0,0,0,0],"split_type":[0,0,0,0,0,0,0,0,0,0,0,0,0,0,0,0,0,0,0,0,0,0,0,0,0,0,0,0,0,0,0,0,0,0,0,0,0,0,0,0,0,0,0,0,0,0,0,0,0,0,0,0,0,0,0,0,0,0,0,0,0,0,0,0,0,0,0,0,0,0,0,0,0,0,0,0,0,0,0,0,0,0,0,0,0,0,0,0,0,0,0,0,0,0,0,0,0,0,0,0,0,0,0,0,0,0,0,0,0,0,0,0,0,0,0],"sum_hessian":[1.85013E5,1.68361E5,1.6652E4,1.21407E5,4.6954E4,1.437E4,2.282E3,8.1619E4,3.9788E4,4.0338E4,6.616E3,9.044E3,5.326E3,1.984E3,2.98E2,7.0864E4,1.0755E4,3.4216E4,5.572E3,2.4644E4,1.5694E4,5.857E3,7.59E2,7.853E3,1.191E3,4.387E3,9.39E2,1.731E3,2.53E2,2.95E2,3E0,3.7477E4,3.3387E4,6.068E3,4.687E3,2.0654E4,1.3562E4,3.883E3,1.689E3,1.8479E4,6.165E3,1.1553E4,4.141E3,3.997E3,1.86E3,7.33E2,2.6E1,6.248E3,1.605E3,1.179E3,1.2E1,3.714E3,6.73E2,9.36E2,3E0,1.39E3,3.41E2,2.39E2,1.4E1,2.86E2,9E0,1.0985E4,2.6492E4,2.0847E4,1.254E4,5.403E3,6.65E2,4.557E3,1.3E2,1.3408E4,7.246E3,6.215E3,7.347E3,1.174E3,2.709E3,1.562E3,1.27E2,1.062E4,7.859E3,1.97E3,4.195E3,6.779E3,4.774E3,2.373E3,1.768E3,2.955E3,1.042E3,1.372E3,4.88E2,4.93E2,2.4E2,1.1E1,1.5E1,4.219E3,2.029E3,4.02E2,1.203E3,7.25E2,4.54E2,2.744E3,9.7E2,2.24E2,4.49E2,4.07E2,5.29E2,9.19E2,4.71E2,8.5E1,2.56E2,1.34E2,1.05E2,1E1,4E0,1.34E2,1.52E2],"tree_param":{"num_deleted":"0","num_feature":"3","num_nodes":"115","size_leaf_vector":"1"}},{"base_weights":[5.1921114E-2,-3.189647E0,2.7457737E1,-6.1087446E0,4.85788E0,2.2583525E1,1.04298065E2,-8.2589855E0,-3.187503E0,1.9724036E0,2.2339693E1,1.1787652E1,3.734595E1,8.76416E1,2.6197E2,-8.619316E0,-1.972534E-1,-4.605891E0,5.636636E0,-1.7463537E0,7.7886457E0,2.062102E1,8.6278595E1,7.7916374E0,2.902856E1,2.9000887E1,7.5679924E1,6.8821365E1,1.307719E2,2.4435992E2,2.4434386E2,-1.1392353E1,-8.0098505E0,-7.1040916E0,3.4197104E0,-6.5020614E0,-1.7155076E0,4.2720175E0,1.6933596E1,-2.5216537E0,3.539418E0,4.642686E0,1.2108275E1,1.5619138E1,2.9218426E1,6.971292E1,1.408073E2,6.0123973E0,1.1443026E1,2.8294943E1,4.1694843E1,2.3037802E1,3.7843735E1,7.419889E1,1.4123685E2,5.339626E1,1.0120356E2,1.111135E2,2.1241795E2,2.2508559E2,1.8007475E2,-4.5668354E0,-3.2931135E0,-2.767788E0,-1.9276506E0,-6.634401E0,-1.6714065E0,9.102322E-1,1.7081863E1,-2.1965435E0,-1.6608412E0,-9.004826E-1,2.967518E-1,2.012023E-1,1.805994E0,4.723644E0,1.8174574E1,-1.0428206E0,-4.3596834E-1,1.123134E1,-2.6724222E-1,1.0499287E0,1.8390217E0,3.7980835E0,4.674044E-1,3.9176161E0,6.3405886E0,7.101643E0,1.1901148E1,1.8732862E1,4.025419E1,7.501166E1,7.249453E0,1.4120785E0,2.259693E0,1.0533777E1,2.1301403E0,7.284375E0,1.252939E1,6.0227427E0,1.048827E1,1.8072502E1,8.283781E0,2.0100605E1,3.3301506E1,1.719923E1,-3.125312E0,3.209745E1,1.8234322E1,3.0871183E1,7.150283E1,5.8548832E1,1.4428922E2,5.2015903E1,8.067973E1],"categories":[],"categories_nodes":[],"categories_segments":[],"categories_sizes":[],"default_left":[0,0,0,0,0,0,0,0,0,0,0,0,0,0,0,0,0,0,0,0,0,0,0,0,0,0,0,0,0,0,0,0,0,0,0,0,0,0,0,0,0,0,0,0,0,0,0,0,0,0,0,0,0,0,0,0,0,0,0,0,0,0,0,0,0,0,0,0,0,0,0,0,0,0,0,0,0,0,0,0,0,0,0,0,0,0,0,0,0,0,0,0,0,0,0,0,0,0,0,0,0,0,0,0,0,0,0,0,0,0,0,0,0,0,0],"id":7,"left_children":[1,3,5,7,9,11,13,15,17,19,21,23,25,27,29,31,33,35,37,39,41,43,45,47,49,51,53,55,57,59,-1,61,63,65,67,69,71,73,75,77,79,81,83,85,87,89,91,93,95,97,-1,99,101,103,-1,105,107,109,111,113,-1,-1,-1,-1,-1,-1,-1,-1,-1,-1,-1,-1,-1,-1,-1,-1,-1,-1,-1,-1,-1,-1,-1,-1,-1,-1,-1,-1,-1,-1,-1,-1,-1,-1,-1,-1,-1,-1,-1,-1,-1,-1,-1,-1,-1,-1,-1,-1,-1,-1,-1,-1,-1,-1,-1],"loss_changes":[1.6436325E7,3.8866078E6,7.326942E6,7.625825E5,2.2214308E6,2.932506E6,3.041883E6,2.03143E5,6.44315E5,8.1761875E5,6.83825E5,7.321959E5,2.484383E6,8.48991E5,8.809745E5,1.13042E5,7.4794766E4,2.430505E5,1.0982861E5,9.450605E4,2.00292E5,2.6087425E5,1.3742262E5,5.6010656E4,1.5739638E5,3.358135E5,7.778685E5,3.632265E5,4.90007E5,6.125815E5,0E0,1.9016625E4,1.0568425E5,2.3551262E4,4.0379766E4,2.1164375E4,6.112007E4,4.004483E4,3.8874062E4,2.0501547E4,4.4305688E5,1.4482672E4,3.6157625E4,5.4015375E4,1.28566125E5,5.1144125E4,4.653762E5,1.14848125E4,2.9032794E5,1.064635E5,0E0,1.340645E5,5.8726875E5,3.594345E5,0E0,1.2663775E5,4.8946E4,2.4704275E5,1.8879625E5,1.9139E5,0E0,0E0,0E0,0E0,0E0,0E0,0E0,0E0,0E0,0E0,0E0,0E0,0E0,0E0,0E0,0E0,0E0,0E0,0E0,0E0,0E0,0E0,0E0,0E0,0E0,0E0,0E0,0E0,0E0,0E0,0E0,0E0,0E0,0E0,0E0,0E0,0E0,0E0,0E0,0E0,0E0,0E0,0E0,0E0,0E0,0E0,0E0,0E0,0E0,0E0,0E0,0E0,0E0,0E0,0E0],"parents":[2147483647,0,0,1,1,2,2,3,3,4,4,5,5,6,6,7,7,8,8,9,9,10,10,11,11,12,12,13,13,14,14,15,15,16,16,17,17,18,18,19,19,20,20,21,21,22,22,23,23,24,24,25,25,26,26,27,27,28,28,29,29,31,31,32,32,33,33,34,34,35,35,36,36,37,37,38,38,39,39,40,40,41,41,42,42,43,43,44,44,45,45,46,46,47,47,48,48,49,49,51,51,52,52,53,53,55,55,56,56,57,57,58,58,59,59],"right_children":[2,4,6,8,10,12,14,16,18,20,22,24,26,28,30,32,34,36,38,40,42,44,46,48,50,52,54,56,58,60,-1,62,64,66,68,70,72,74,76,78,80,82,84,86,88,90,92,94,96,98,-1,100,102,104,-1,106,108,110,112,114,-1,-1,-1,-1,-1,-1,-1,-1,-1,-1,-1,-1,-1,-1,-1,-1,-1,-1,-1,-1,-1,-1,-1,-1,-1,-1,-1,-1,-1,-1,-1,-1,-1,-1,-1,-1,-1,-1,-1,-1,-1,-1,-1,-1,-1,-1,-1,-1,-1,-1,-1,-1,-1,-1,-1],"split_conditions":[8.03E1,3.885E1,4E0,1.89E1,3E0,2E0,2.41E2,4E0,3E0,2E0,6E0,1.6805E2,1.6805E2,5E0,7.918E2,5.95E0,8.35E0,2E0,5E0,6.985E1,5.495E1,5.76E1,5.94E1,1.1915E2,7.918E2,1.136E2,7.918E2,1.35E2,1.4855E2,6E0,2.4434386E2,1.35E0,2E0,2.2E0,8E0,2.745E1,3.025E1,2.375E1,7E0,5.115E1,7.155E1,4.745E1,7.9E1,4E0,4E0,8E0,7.155E1,9.575E1,1.2515E2,2.532E2,4.1694843E1,3E0,1.2515E2,3E0,1.4123685E2,1.2765E2,2.0615E2,8E0,7E0,2.532E2,1.8007475E2,-4.5668354E0,-3.2931135E0,-2.767788E0,-1.9276506E0,-6.634401E0,-1.6714065E0,9.102322E-1,1.7081863E1,-2.1965435E0,-1.6608412E0,-9.004826E-1,2.967518E-1,2.012023E-1,1.805994E0,4.723644E0,1.8174574E1,-1.0428206E0,-4.3596834E-1,1.123134E1,-2.6724222E-1,1.0499287E0,1.8390217E0,3.7980835E0,4.674044E-1,3.9176161E0,6.3405886E0,7.101643E0,1.1901148E1,1.8732862E1,4.025419E1,7.501166E1,7.249453E0,1.4120785E0,2.259693E0,1.0533777E1,2.1301403E0,7.284375E0,1.252939E1,6.0227427E0,1.048827E1,1.8072502E1,8.283781E0,2.0100605E1,3.3301506E1,1.719923E1,-3.125312E0,3.209745E1,1.8234322E1,3.0871183E1,7.150283E1,5.8548832E1,1.4428922E2,5.2015903E1,8.067973E1],"split_indices":[2,2,1,2,1,1,2,1,1,1,1,2,2,1,2,2,2,1,1,2,2,2,2,2,2,2,2,2,2,1,0,2,1,2,1,2,2,2,1,2,2,2,2,1,1,1,2,2,2,2,0,1,2,1,0,2,2,1,1,2,0,0,0,0,0,0,0,0,0,0,0,0,0,0,0,0,0,0,0,0,0,0,0,0,0,0,0,0,0,0,0,0,0,0,0,0,0,0,0,0,0,0,0,0,0,0,0,0,0,0,0,0,0,0,0],"split_type":[0,0,0,0,0,0,0,0,0,0,0,0,0,0,0,0,0,0,0,0,0,0,0,0,0,0,0,0,0,0,0,0,0,0,0,0,0,0,0,0,0,0,0,0,0,0,0,0,0,0,0,0,0,0,0,0,0,0,0,0,0,0,0,0,0,0,0,0,0,0,0,0,0,0,0,0,0,0,0,0,0,0,0,0,0,0,0,0,0,0,0,0,0,0,0,0,0,0,0,0,0,0,0,0,0,0,0,0,0,0,0,0,0,0,0],"sum_hessian":[1.85013E5,1.65445E5,1.9568E4,1.21407E5,4.4038E4,1.8402E4,1.166E3,6.9931E4,5.1476E4,3.78E4,6.238E3,1.063E4,7.772E3,1.056E3,1.1E2,6.6939E4,2.992E3,4.4348E4,7.128E3,2.3058E4,1.4742E4,6.076E3,1.62E2,8.631E3,1.999E3,6.384E3,1.388E3,7.37E2,3.19E2,1.08E2,2E0,1.2058E4,5.4881E4,1.028E3,1.964E3,2.6779E4,1.7569E4,6.361E3,7.67E2,2.0109E4,2.949E3,8.531E3,6.211E3,3.843E3,2.233E3,1.26E2,3.6E1,5.805E3,2.826E3,1.987E3,1.2E1,3.815E3,2.569E3,1.384E3,4E0,5.01E2,2.36E2,2.59E2,6E1,1.04E2,4E0,1.176E3,1.0882E4,3.1046E4,2.3835E4,9.4E1,9.34E2,1.951E3,1.3E1,1.4482E4,1.2297E4,1.1907E4,5.662E3,2.079E3,4.282E3,7.48E2,1.9E1,1.062E4,9.489E3,3.4E2,2.609E3,4.826E3,3.705E3,5.902E3,3.09E2,2.627E3,1.216E3,1.461E3,7.72E2,1.15E2,1.1E1,1.8E1,1.8E1,3.125E3,2.68E3,4.37E2,2.389E3,1.533E3,4.54E2,3.058E3,7.57E2,8.04E2,1.765E3,1.16E3,2.24E2,4.72E2,2.9E1,2.05E2,3.1E1,2.45E2,1.4E1,5.8E1,2E0,5E1,5.4E1],"tree_param":{"num_deleted":"0","num_feature":"3","num_nodes":"115","size_leaf_vector":"1"}},{"base_weights":[4.4165716E-2,-2.3981655E0,1.8269989E1,-4.983396E0,1.6646279E0,1.3078871E1,5.0981457E1,-5.584383E0,-1.032989E0,-3.0194374E-2,1.1829266E1,1.0436876E1,3.646507E1,4.3440933E1,1.5229546E2,-6.8577056E0,-4.3646293E0,-4.4027925E0,1.8480322E0,-2.244301E0,3.4154418E0,7.0157657E0,1.922533E1,5.8464813E0,1.8060684E1,2.4327847E1,5.6397537E1,3.161607E1,6.4651276E1,1.4105016E2,2.0631963E2,-6.669691E0,-1.0190576E1,-5.226558E0,-2.9853466E0,-4.8095455E0,1.2016271E1,2.7978409E1,1.4327626E0,-3.535199E0,-8.310811E-1,1.564164E0,7.0737495E0,5.5314374E0,1.9204874E1,1.7652958E1,7.724878E1,4.4893656E0,1.3431196E1,1.3855706E1,2.6780542E1,2.3468096E1,3.0148582E1,4.3801037E1,7.365651E1,3.0451973E1,1.5137004E2,1.4666844E2,5.4625988E1,1.1946948E2,2.7809863E2,-2.0837624E0,2.311739E0,-2.8620024E0,-3.4150681E0,-1.6500924E0,-1.3803847E0,-1.1511022E0,-3.5906214E-1,-3.4888346E0,-1.1847528E0,4.183578E0,-5.733306E0,1.0695642E1,-7.053087E0,1.15338944E-1,3.0148826E0,-1.2939177E0,-9.64323E-1,-3.7216496E-1,7.037302E-1,1.9860448E-1,1.006209E0,1.7256984E0,3.111862E0,1.1829017E0,2.1345067E0,3.7938192E0,8.488283E0,4.2046685E0,7.5127153E0,3.583071E1,9.189366E0,1.5552684E0,3.791763E-1,7.1881533E0,2.9687083E0,7.200098E0,3.9258974E0,2.2816277E1,6.3370533E0,5.9412413E0,8.778826E0,1.177871E1,1.421982E1,2.9219105E1,1.35451565E1,8.211642E0,1.584119E1,-1.9598904E1,7.413172E1,4.034768E1,5.898771E1,1.3804867E1,3.333481E1,2.381824E1,4.323297E1,6.818761E1,1.3685683E2],"categories":[],"categories_nodes":[],"categories_segments":[],"categories_sizes":[],"default_left":[0,0,0,0,0,0,0,0,0,0,0,0,0,0,0,0,0,0,0,0,0,0,0,0,0,0,0,0,0,0,0,0,0,0,0,0,0,0,0,0,0,0,0,0,0,0,0,0,0,0,0,0,0,0,0,0,0,0,0,0,0,0,0,0,0,0,0,0,0,0,0,0,0,0,0,0,0,0,0,0,0,0,0,0,0,0,0,0,0,0,0,0,0,0,0,0,0,0,0,0,0,0,0,0,0,0,0,0,0,0,0,0,0,0,0,0,0,0,0],"id":8,"left_children":[1,3,5,7,9,11,13,15,17,19,21,23,25,27,29,31,33,35,37,39,41,43,45,47,49,51,53,55,57,59,-1,61,63,65,67,69,71,73,75,77,79,81,83,85,87,89,91,93,95,97,99,101,-1,103,105,107,109,111,113,115,117,-1,-1,-1,-1,-1,-1,-1,-1,-1,-1,-1,-1,-1,-1,-1,-1,-1,-1,-1,-1,-1,-1,-1,-1,-1,-1,-1,-1,-1,-1,-1,-1,-1,-1,-1,-1,-1,-1,-1,-1,-1,-1,-1,-1,-1,-1,-1,-1,-1,-1,-1,-1,-1,-1,-1,-1,-1,-1],"loss_changes":[8.235664E6,1.7136358E6,3.7118685E6,2.3671275E5,1.0930006E6,1.165525E6,2.2806825E6,1.343805E5,1.27839625E5,4.1487303E5,3.2265912E5,5.932916E5,4.61914E5,6.972125E5,1.1493725E6,2.6463E4,5.2534938E4,4.058965E4,7.699225E4,6.039492E4,1.4406803E5,9.929472E4,3.2470838E5,1.0889469E5,2.3326988E5,7.569956E4,1.54173E5,2.4520438E5,8.11767E5,5.70126E5,0E0,1.5918588E5,1.6446562E3,4.63075E3,2.5892375E4,3.4708094E4,9.093004E3,4.4695453E4,6.3128016E4,4.3034844E3,2.0563672E4,2.2809012E4,3.1102281E4,1.2294953E4,3.5173125E4,9.321225E4,1.8120681E5,2.0119797E4,5.954853E4,3.3255688E4,5.75949E5,2.44735E4,0E0,5.0146875E3,2.0133338E5,1.20815125E5,3.688236E5,3.92505E4,4.2775275E5,1.643285E5,1.40613E5,0E0,0E0,0E0,0E0,0E0,0E0,0E0,0E0,0E0,0E0,0E0,0E0,0E0,0E0,0E0,0E0,0E0,0E0,0E0,0E0,0E0,0E0,0E0,0E0,0E0,0E0,0E0,0E0,0E0,0E0,0E0,0E0,0E0,0E0,0E0,0E0,0E0,0E0,0E0,0E0,0E0,0E0,0E0,0E0,0E0,0E0,0E0,0E0,0E0,0E0,0E0,0E0,0E0,0E0,0E0,0E0,0E0,0E0],"parents":[2147483647,0,0,1,1,2,2,3,3,4,4,5,5,6,6,7,7,8,8,9,9,10,10,11,11,12,12,13,13,14,14,15,15,16,16,17,17,18,18,19,19,20,20,21,21,22,22,23,23,24,24,25,25,26,26,27,27,28,28,29,29,31,31,32,32,33,33,34,34,35,35,36,36,37,37,38,38,39,39,40,40,41,41,42,42,43,43,44,44,45,45,46,46,47,47,48,48,49,49,50,50,51,51,53,53,54,54,55,55,56,56,57,57,58,58,59,59,60,60],"right_children":[2,4,6,8,10,12,14,16,18,20,22,24,26,28,30,32,34,36,38,40,42,44,46,48,50,52,54,56,58,60,-1,62,64,66,68,70,72,74,76,78,80,82,84,86,88,90,92,94,96,98,100,102,-1,104,106,108,110,112,114,116,118,-1,-1,-1,-1,-1,-1,-1,-1,-1,-1,-1,-1,-1,-1,-1,-1,-1,-1,-1,-1,-1,-1,-1,-1,-1,-1,-1,-1,-1,-1,-1,-1,-1,-1,-1,-1,-1,-1,-1,-1,-1,-1,-1,-1,-1,-1,-1,-1,-1,-1,-1,-1,-1,-1,-1,-1,-1,-1],"split_conditions":[7.63E1,2.84E1,3E0,3E0,3E0,2.0615E2,2.41E2,1.375E1,1.285E1,2E0,4.885E1,2E0,2E0,1.1915E2,7.918E2,1.305E1,2E0,6E0,1.305E1,4.55E1,5.115E1,5E0,6E0,1.4855E2,1.1915E2,7.918E2,2.532E2,7E0,1.2515E2,5E0,2.0631963E2,1.285E1,2E0,2.27E1,2.27E1,3.35E0,1.225E1,5E0,5E0,3.225E1,6.985E1,4.24E1,6.43E1,3.725E1,3.955E1,4E0,1E0,1.2515E2,1.5865E2,7.815E1,1.2515E2,2.532E2,3.0148582E1,2.41E2,1E0,5E0,1E0,5E0,5E0,2.532E2,6E0,-2.0837624E0,2.311739E0,-2.8620024E0,-3.4150681E0,-1.6500924E0,-1.3803847E0,-1.1511022E0,-3.5906214E-1,-3.4888346E0,-1.1847528E0,4.183578E0,-5.733306E0,1.0695642E1,-7.053087E0,1.15338944E-1,3.0148826E0,-1.2939177E0,-9.64323E-1,-3.7216496E-1,7.037302E-1,1.9860448E-1,1.006209E0,1.7256984E0,3.111862E0,1.1829017E0,2.1345067E0,3.7938192E0,8.488283E0,4.2046685E0,7.5127153E0,3.583071E1,9.189366E0,1.5552684E0,3.791763E-1,7.1881533E0,2.9687083E0,7.200098E0,3.9258974E0,2.2816277E1,6.3370533E0,5.9412413E0,8.778826E0,1.177871E1,1.421982E1,2.9219105E1,1.35451565E1,8.211642E0,1.584119E1,-1.9598904E1,7.413172E1,4.034768E1,5.898771E1,1.3804867E1,3.333481E1,2.381824E1,4.323297E1,6.818761E1,1.3685683E2],"split_indices":[2,2,1,1,1,2,2,2,2,1,2,1,1,2,2,2,1,1,2,2,2,1,1,2,2,2,2,1,2,1,0,2,1,2,2,2,2,1,1,2,2,2,2,2,2,1,0,2,2,2,2,2,0,2,0,1,0,1,1,2,1,0,0,0,0,0,0,0,0,0,0,0,0,0,0,0,0,0,0,0,0,0,0,0,0,0,0,0,0,0,0,0,0,0,0,0,0,0,0,0,0,0,0,0,0,0,0,0,0,0,0,0,0,0,0,0,0,0,0],"split_type":[0,0,0,0,0,0,0,0,0,0,0,0,0,0,0,0,0,0,0,0,0,0,0,0,0,0,0,0,0,0,0,0,0,0,0,0,0,0,0,0,0,0,0,0,0,0,0,0,0,0,0,0,0,0,0,0,0,0,0,0,0,0,0,0,0,0,0,0,0,0,0,0,0,0,0,0,0,0,0,0,0,0,0,0,0,0,0,0,0,0,0,0,0,0,0,0,0,0,0,0,0,0,0,0,0,0,0,0,0,0,0,0,0,0,0,0,0,0,0],"sum_hessian":[1.85013E5,1.63151E5,2.1862E4,9.9706E4,6.3445E4,1.8869E4,2.993E3,8.654E4,1.3166E4,5.4379E4,9.066E3,1.6955E4,1.914E3,2.787E3,2.06E2,4.2338E4,4.4202E4,6.068E3,7.098E3,3.3106E4,2.1273E4,5.493E3,3.573E3,1.0584E4,6.371E3,1.191E3,7.23E2,1.791E3,9.96E2,2.03E2,3E0,4.008E4,2.258E3,2.7201E4,1.7001E4,5.922E3,1.46E2,1.1E2,6.988E3,1.7301E4,1.5805E4,1.4126E4,7.147E3,4.898E3,5.95E2,3.48E3,9.3E1,8.979E3,1.605E3,4.3E3,2.071E3,1.179E3,1.2E1,4.2E2,3.03E2,1.775E3,1.6E1,1.07E2,8.89E2,1.77E2,2.6E1,3.9325E4,7.55E2,1.467E3,7.91E2,1.8913E4,8.288E3,1.1516E4,5.485E3,6.62E2,5.26E3,1.38E2,8E0,9.6E1,1.4E1,6.231E3,7.57E2,5.048E3,1.2253E4,1.4001E4,1.804E3,9.393E3,4.733E3,5.105E3,2.042E3,2.447E3,2.451E3,3.47E2,2.48E2,2.334E3,1.146E3,4.8E1,4.5E1,7.387E3,1.592E3,4.02E2,1.203E3,3.01E2,3.999E3,2.12E2,1.859E3,7.25E2,4.54E2,1.91E2,2.29E2,1.64E2,1.39E2,1.562E3,2.13E2,5E0,1.1E1,8.9E1,1.8E1,7.73E2,1.16E2,6.9E1,1.08E2,2.2E1,4E0],"tree_param":{"num_deleted":"0","num_feature":"3","num_nodes":"119","size_leaf_vector":"1"}},{"base_weights":[3.5973754E-2,-1.3236896E0,1.693824E1,-2.8520832E0,3.1745584E0,1.3775665E1,6.3152866E1,-4.432627E0,-1.6082602E0,1.6289986E0,1.2639323E1,7.5845637E0,2.2396305E1,5.487723E1,1.776608E2,-4.540693E0,2.974404E0,-2.0087688E0,7.378252E0,-2.813315E-1,4.6041756E0,1.0836255E1,2.6704271E1,4.9540095E0,1.4824001E1,1.682547E1,3.8426914E1,4.8093647E1,1.2725912E2,1.5683992E2,1.5421114E2,-5.2115717E0,-3.7297156E0,-8.597846E0,4.1669436E0,-3.2156394E0,-5.4562724E-1,6.89065E0,5.318039E1,-9.6667856E-1,1.598427E0,2.9319456E0,7.0163302E0,7.984165E0,1.4940175E1,2.4834578E1,1.3058401E2,5.5247784E0,-2.4266047E0,1.4438303E1,2.1799747E1,1.8436329E1,-3.8515313E0,3.744714E1,9.064182E1,3.373233E1,7.391471E1,9.777982E1,3.161988E2,6.70686E1,8.470956E1,-1.9195787E0,-1.4155478E0,-2.8324075E0,-1.0261145E0,-5.115864E0,-1.8717554E0,5.4015964E-1,2.2718992E0,-1.0873145E0,-8.018071E-1,-4.0314162E-1,3.3986217E-1,9.5572716E-1,3.0088089E0,1.2487062E1,2.8896843E1,-2.579236E-1,-1.5239385E0,7.661318E0,5.2419186E-2,9.839195E-1,-6.6566163E-1,2.1920438E0,1.1481957E0,2.652959E0,-1.3134046E0,6.2609158E0,3.6033788E0,6.8446527E0,2.307071E1,4.3071022E1,1.313075E1,1.3679118E0,5.037062E0,-2.1571243E0,6.6923225E-1,3.7889912E0,6.1509714E0,4.7897224E0,1.4886992E1,-1.8743972E0,1.2150024E1,9.547057E0,1.5975415E1,1.841994E1,8.8655E0,3.9943367E1,1.8329952E1,2.154027E1,4.5838573E1,5.4083447E1,1.583842E2,1.6284124E1,6.5974014E1],"categories":[],"categories_nodes":[],"categories_segments":[],"categories_sizes":[],"default_left":[0,0,0,0,0,0,0,0,0,0,0,0,0,0,0,0,0,0,0,0,0,0,0,0,0,0,0,0,0,0,0,0,0,0,0,0,0,0,0,0,0,0,0,0,0,0,0,0,0,0,0,0,0,0,0,0,0,0,0,0,0,0,0,0,0,0,0,0,0,0,0,0,0,0,0,0,0,0,0,0,0,0,0,0,0,0,0,0,0,0,0,0,0,0,0,0,0,0,0,0,0,0,0,0,0,0,0,0,0,0,0,0,0,0,0],"id":9,"left_children":[1,3,5,7,9,11,13,15,17,19,21,23,25,27,29,31,33,35,37,39,41,43,45,47,49,51,53,55,57,59,-1,61,63,65,67,69,71,73,75,77,79,81,83,85,87,89,91,93,95,97,-1,99,101,103,-1,105,107,109,111,-1,113,-1,-1,-1,-1,-1,-1,-1,-1,-1,-1,-1,-1,-1,-1,-1,-1,-1,-1,-1,-1,-1,-1,-1,-1,-1,-1,-1,-1,-1,-1,-1,-1,-1,-1,-1,-1,-1,-1,-1,-1,-1,-1,-1,-1,-1,-1,-1,-1,-1,-1,-1,-1,-1,-1],"loss_changes":[4.2519015E6,1.1773001E6,2.012446E6,2.5126256E5,6.3525975E5,6.8799925E5,8.26056E5,4.5068125E4,2.5745305E5,2.1218603E5,1.5430556E5,1.4286881E5,4.80612E5,3.9847075E5,3.3259362E5,3.0164375E4,1.1214123E4,1.2091475E5,6.779456E4,2.9292035E4,5.8863062E4,6.3144875E4,1.3115953E5,2.3212328E4,4.356978E4,1.3333525E5,3.4757438E5,2.7747925E5,3.5896875E5,2.5538538E5,0E0,1.7738812E4,4.4349938E4,1.4092388E3,5.9105566E3,8.317875E3,4.1470586E4,3.509803E4,1.1945594E4,7.3240566E3,2.0704547E5,1.5454367E4,5.5079062E3,3.392553E4,3.821747E4,6.983791E4,7.2446406E3,5.550086E4,8.802038E3,2.1544281E4,0E0,2.85218E5,3.1076219E4,1.214E5,0E0,5.4516062E4,1.96042E5,7.7642125E4,1.6385156E5,0E0,1.07373E5,0E0,0E0,0E0,0E0,0E0,0E0,0E0,0E0,0E0,0E0,0E0,0E0,0E0,0E0,0E0,0E0,0E0,0E0,0E0,0E0,0E0,0E0,0E0,0E0,0E0,0E0,0E0,0E0,0E0,0E0,0E0,0E0,0E0,0E0,0E0,0E0,0E0,0E0,0E0,0E0,0E0,0E0,0E0,0E0,0E0,0E0,0E0,0E0,0E0,0E0,0E0,0E0,0E0,0E0],"parents":[2147483647,0,0,1,1,2,2,3,3,4,4,5,5,6,6,7,7,8,8,9,9,10,10,11,11,12,12,13,13,14,14,15,15,16,16,17,17,18,18,19,19,20,20,21,21,22,22,23,23,24,24,25,25,26,26,27,27,28,28,29,29,31,31,32,32,33,33,34,34,35,35,36,36,37,37,38,38,39,39,40,40,41,41,42,42,43,43,44,44,45,45,46,46,47,47,48,48,49,49,51,51,52,52,53,53,55,55,56,56,57,57,58,58,60,60],"right_children":[2,4,6,8,10,12,14,16,18,20,22,24,26,28,30,32,34,36,38,40,42,44,46,48,50,52,54,56,58,60,-1,62,64,66,68,70,72,74,76,78,80,82,84,86,88,90,92,94,96,98,-1,100,102,104,-1,106,108,110,112,-1,114,-1,-1,-1,-1,-1,-1,-1,-1,-1,-1,-1,-1,-1,-1,-1,-1,-1,-1,-1,-1,-1,-1,-1,-1,-1,-1,-1,-1,-1,-1,-1,-1,-1,-1,-1,-1,-1,-1,-1,-1,-1,-1,-1,-1,-1,-1,-1,-1,-1,-1,-1,-1,-1,-1],"split_conditions":[9.575E1,4.24E1,4E0,1.56E1,3E0,2E0,2.532E2,5E0,4E0,2E0,5E0,1.6805E2,1.6805E2,6E0,7.918E2,2E0,3.35E0,2E0,7E0,6.985E1,6.01E1,6.01E1,9.205E1,1.5865E2,7.918E2,1.5865E2,7.918E2,1.4855E2,1.6805E2,1E0,1.5421114E2,6.6E0,2.75E0,1.35E0,1.06E1,2.71E1,3.025E1,2.42E1,3.505E1,6.8E1,7.155E1,5.89E1,9.045E1,5.89E1,6.8E1,7E0,6E0,1.4855E2,1E0,2.532E2,2.1799747E1,1.4855E2,2E0,2.532E2,9.064182E1,1.041E2,1.5865E2,1.2765E2,7E0,6.70686E1,5E0,-1.9195787E0,-1.4155478E0,-2.8324075E0,-1.0261145E0,-5.115864E0,-1.8717554E0,5.4015964E-1,2.2718992E0,-1.0873145E0,-8.018071E-1,-4.0314162E-1,3.3986217E-1,9.5572716E-1,3.0088089E0,1.2487062E1,2.8896843E1,-2.579236E-1,-1.5239385E0,7.661318E0,5.2419186E-2,9.839195E-1,-6.6566163E-1,2.1920438E0,1.1481957E0,2.652959E0,-1.3134046E0,6.2609158E0,3.6033788E0,6.8446527E0,2.307071E1,4.3071022E1,1.313075E1,1.3679118E0,5.037062E0,-2.1571243E0,6.6923225E-1,3.7889912E0,6.1509714E0,4.7897224E0,1.4886992E1,-1.8743972E0,1.2150024E1,9.547057E0,1.5975415E1,1.841994E1,8.8655E0,3.9943367E1,1.8329952E1,2.154027E1,4.5838573E1,5.4083447E1,1.583842E2,1.6284124E1,6.5974014E1],"split_indices":[2,2,1,2,1,1,2,1,1,1,1,2,2,1,2,1,2,1,1,2,2,2,2,2,2,2,2,2,2,0,0,2,2,2,2,2,2,2,2,2,2,2,2,2,2,1,1,2,0,2,0,2,0,2,0,2,2,2,1,0,1,0,0,0,0,0,0,0,0,0,0,0,0,0,0,0,0,0,0,0,0,0,0,0,0,0,0,0,0,0,0,0,0,0,0,0,0,0,0,0,0,0,0,0,0,0,0,0,0,0,0,0,0,0,0],"split_type":[0,0,0,0,0,0,0,0,0,0,0,0,0,0,0,0,0,0,0,0,0,0,0,0,0,0,0,0,0,0,0,0,0,0,0,0,0,0,0,0,0,0,0,0,0,0,0,0,0,0,0,0,0,0,0,0,0,0,0,0,0,0,0,0,0,0,0,0,0,0,0,0,0,0,0,0,0,0,0,0,0,0,0,0,0,0,0,0,0,0,0,0,0,0,0,0,0,0,0,0,0,0,0,0,0,0,0,0,0,0,0,0,0,0,0],"sum_hessian":[1.85013E5,1.71239E5,1.3774E4,1.27812E5,4.3427E4,1.2893E4,8.81E2,5.6286E4,7.1526E4,3.7332E4,6.095E3,7.505E3,5.388E3,8.23E2,5.8E1,5.5477E4,8.09E2,6.8475E4,3.051E3,2.2735E4,1.4597E4,5.404E3,6.91E2,5.506E3,1.999E3,4E3,1.388E3,7.54E2,6.9E1,5.6E1,2E0,3.0358E4,2.5119E4,7.5E1,7.34E2,3.7523E4,3.0952E4,3.02E3,3.1E1,1.6661E4,6.074E3,8.622E3,5.975E3,3.19E3,2.214E3,6.8E2,1.1E1,5.111E3,3.95E2,1.987E3,1.2E1,3.711E3,2.89E2,1.384E3,4E0,4.86E2,2.68E2,6.1E1,8E0,2.8E1,2.8E1,8.906E3,2.1452E4,1.289E3,2.383E4,1.5E1,6E1,4.34E2,3E2,2.1404E4,1.6119E4,2.0977E4,9.975E3,1.386E3,1.634E3,2.6E1,5E0,1.624E4,4.21E2,3.4E2,5.734E3,8.077E3,5.45E2,5.475E3,5E2,2.983E3,2.07E2,7.3E2,1.484E3,6.56E2,2.4E1,9E0,2E0,4.709E3,4.02E2,1.95E2,2E2,1.533E3,4.54E2,3.44E3,2.71E2,2.75E2,1.4E1,1.023E3,3.61E2,6.2E1,4.24E2,4.6E1,2.22E2,4.3E1,1.8E1,6E0,2E0,2.4E1,4E0],"tree_param":{"num_deleted":"0","num_feature":"3","num_nodes":"115","size_leaf_vector":"1"}},{"base_weights":[3.05363E-2,-1.035175E0,1.0804886E1,-2.2496202E0,1.4260232E0,7.4837523E0,3.1705986E1,-2.6076336E0,7.0038885E-2,5.0700474E-1,7.0020695E0,5.312011E0,1.5177575E1,3.0987658E1,1.299679E2,-3.6655557E0,-2.1283853E0,-1.9945225E0,2.0375013E0,-7.248331E-1,2.4442487E0,3.964084E0,1.0792996E1,3.1946483E0,8.893573E0,1.0392655E1,2.3386047E1,2.6576073E1,7.575174E1,-3.4119658E0,-4.8280463E0,-2.5847902E0,-1.4045062E0,-4.69087E0,-8.668486E-1,1.6468831E0,1.7100914E1,-1.3222435E0,3.6255488E-1,1.1243354E0,4.2179904E0,4.277873E0,-1.0841351E1,1.0052091E1,3.5890656E1,4.1249743E0,1.3805386E0,8.053537E0,1.5808775E1,1.0111797E1,1.5762879E1,2.288755E1,4.8668556E1,2.4093307E1,8.9063065E1,6.224101E1,1.6201688E2,-1.0980374E0,1.4954729E0,-1.6693636E0,-1.2422132E0,3.0347162E-1,-7.868173E-1,-6.158947E-1,-1.0831125E-1,-1.775721E0,-7.644009E-1,-4.1430414E-1,1.0180054E0,6.285639E-1,-1.5400301E0,4.285047E0,1.0973977E1,-4.981644E-1,-3.21779E-1,3.1467938E-1,-1.934548E-1,3.8880137E-1,-3.3022085E-1,9.5503956E-1,1.5997726E0,5.0760627E0,1.1895759E0,-1.4646796E0,-9.949857E0,2.3474486E0,4.3016624E0,1.3420479E1,-4.232926E1,6.903825E-1,6.505908E0,-1.4643464E0,1.3461032E0,3.0578687E0,-3.5754216E-1,9.777502E0,-2.9094315E-1,2.6530318E0,4.309726E0,8.941551E0,4.6688504E0,4.7843895E0,9.065072E0,2.1936821E1,7.277239E1,1.2634217E1,2.2378668E1,3.895366E1,8.3280525E1],"categories":[],"categories_nodes":[],"categories_segments":[],"categories_sizes":[],"default_left":[0,0,0,0,0,0,0,0,0,0,0,0,0,0,0,0,0,0,0,0,0,0,0,0,0,0,0,0,0,0,0,0,0,0,0,0,0,0,0,0,0,0,0,0,0,0,0,0,0,0,0,0,0,0,0,0,0,0,0,0,0,0,0,0,0,0,0,0,0,0,0,0,0,0,0,0,0,0,0,0,0,0,0,0,0,0,0,0,0,0,0,0,0,0,0,0,0,0,0,0,0,0,0,0,0,0,0,0,0],"id":10,"left_children":[1,3,5,7,9,11,13,15,17,19,21,23,25,27,-1,29,31,33,35,37,39,41,43,45,47,49,51,53,55,57,59,61,63,65,67,69,71,73,75,77,79,81,83,85,87,89,91,93,95,97,-1,99,-1,101,103,105,107,-1,-1,-1,-1,-1,-1,-1,-1,-1,-1,-1,-1,-1,-1,-1,-1,-1,-1,-1,-1,-1,-1,-1,-1,-1,-1,-1,-1,-1,-1,-1,-1,-1,-1,-1,-1,-1,-1,-1,-1,-1,-1,-1,-1,-1,-1,-1,-1,-1,-1,-1,-1],"loss_changes":[2.124406E6,5.032357E5,1.1557364E6,9.362306E4,2.8506156E5,2.4004431E5,6.450455E5,4.95075E4,6.123385E4,1.1397005E5,9.060578E4,8.497466E4,1.2398969E5,4.482425E5,0E0,8.9591875E3,2.2203344E4,2.2362592E4,4.539078E4,1.8966041E4,4.3457023E4,2.0353086E4,6.474022E4,1.18859375E4,2.4061438E4,2.3145203E4,7.685056E4,3.20081E5,2.27679E5,5.210803E4,2.7358594E3,5.6264688E3,1.758848E4,5.6934453E3,1.1368723E4,2.288539E4,1.0179242E4,1.5896328E3,7.159345E3,4.0675605E3,9.1153125E3,1.6852469E4,1.1944315E4,3.2369438E4,1.628452E5,1.4909838E5,4.651164E4,7.3491516E4,1.2674857E5,1.0599297E4,0E0,5.83635E4,0E0,9.9225875E4,1.7557731E5,4.1119812E4,6.4354812E4,0E0,0E0,0E0,0E0,0E0,0E0,0E0,0E0,0E0,0E0,0E0,0E0,0E0,0E0,0E0,0E0,0E0,0E0,0E0,0E0,0E0,0E0,0E0,0E0,0E0,0E0,0E0,0E0,0E0,0E0,0E0,0E0,0E0,0E0,0E0,0E0,0E0,0E0,0E0,0E0,0E0,0E0,0E0,0E0,0E0,0E0,0E0,0E0,0E0,0E0,0E0,0E0],"parents":[2147483647,0,0,1,1,2,2,3,3,4,4,5,5,6,6,7,7,8,8,9,9,10,10,11,11,12,12,13,13,15,15,16,16,17,17,18,18,19,19,20,20,21,21,22,22,23,23,24,24,25,25,26,26,27,27,28,28,29,29,30,30,31,31,32,32,33,33,34,34,35,35,36,36,37,37,38,38,39,39,40,40,41,41,42,42,43,43,44,44,45,45,46,46,47,47,48,48,49,49,51,51,53,53,54,54,55,55,56,56],"right_children":[2,4,6,8,10,12,14,16,18,20,22,24,26,28,-1,30,32,34,36,38,40,42,44,46,48,50,52,54,56,58,60,62,64,66,68,70,72,74,76,78,80,82,84,86,88,90,92,94,96,98,-1,100,-1,102,104,106,108,-1,-1,-1,-1,-1,-1,-1,-1,-1,-1,-1,-1,-1,-1,-1,-1,-1,-1,-1,-1,-1,-1,-1,-1,-1,-1,-1,-1,-1,-1,-1,-1,-1,-1,-1,-1,-1,-1,-1,-1,-1,-1,-1,-1,-1,-1,-1,-1,-1,-1,-1,-1],"split_conditions":[8.64E1,3.395E1,3E0,3E0,3E0,1.6805E2,7.918E2,1.065E1,1.56E1,2E0,5.235E1,2E0,2E0,2.41E2,1.299679E2,9.5E0,2E0,6.85E0,6E0,5.7E1,5.285E1,5.18E1,6E0,1.2515E2,1.4855E2,7.918E2,7.918E2,6E0,5E0,9.3E0,1E1,1.085E1,2.27E1,4E0,5E0,3.225E1,7E0,4.24E1,7.155E1,5.14E1,6.43E1,3.43E1,4E0,4E0,8.53E1,1.1915E2,1.35E2,1.2765E2,1.5865E2,2.532E2,1.5762879E1,1E0,4.8668556E1,1.136E2,1.6805E2,2.532E2,6E0,-1.0980374E0,1.4954729E0,-1.6693636E0,-1.2422132E0,3.0347162E-1,-7.868173E-1,-6.158947E-1,-1.0831125E-1,-1.775721E0,-7.644009E-1,-4.1430414E-1,1.0180054E0,6.285639E-1,-1.5400301E0,4.285047E0,1.0973977E1,-4.981644E-1,-3.21779E-1,3.1467938E-1,-1.934548E-1,3.8880137E-1,-3.3022085E-1,9.5503956E-1,1.5997726E0,5.0760627E0,1.1895759E0,-1.4646796E0,-9.949857E0,2.3474486E0,4.3016624E0,1.3420479E1,-4.232926E1,6.903825E-1,6.505908E0,-1.4643464E0,1.3461032E0,3.0578687E0,-3.5754216E-1,9.777502E0,-2.9094315E-1,2.6530318E0,4.309726E0,8.941551E0,4.6688504E0,4.7843895E0,9.065072E0,2.1936821E1,7.277239E1,1.2634217E1,2.2378668E1,3.895366E1,8.3280525E1],"split_indices":[2,2,1,1,1,2,2,2,2,1,2,1,1,2,0,2,1,2,1,2,2,2,1,2,2,2,2,1,1,2,2,2,2,1,1,2,1,2,2,2,2,2,1,1,2,2,2,2,2,2,0,0,0,2,2,2,1,0,0,0,0,0,0,0,0,0,0,0,0,0,0,0,0,0,0,0,0,0,0,0,0,0,0,0,0,0,0,0,0,0,0,0,0,0,0,0,0,0,0,0,0,0,0,0,0,0,0,0,0],"split_type":[0,0,0,0,0,0,0,0,0,0,0,0,0,0,0,0,0,0,0,0,0,0,0,0,0,0,0,0,0,0,0,0,0,0,0,0,0,0,0,0,0,0,0,0,0,0,0,0,0,0,0,0,0,0,0,0,0,0,0,0,0,0,0,0,0,0,0,0,0,0,0,0,0,0,0,0,0,0,0,0,0,0,0,0,0,0,0,0,0,0,0,0,0,0,0,0,0,0,0,0,0,0,0,0,0,0,0,0,0],"sum_hessian":[1.85013E5,1.68361E5,1.6652E4,1.12734E5,5.5627E4,1.437E4,2.282E3,9.7661E4,1.5073E4,4.7757E4,7.87E3,1.1208E4,3.162E3,2.279E3,3E0,3.0446E4,6.7215E4,7.355E3,7.718E3,2.9194E4,1.8563E4,4.37E3,3.5E3,7.045E3,4.163E3,1.999E3,1.163E3,2.076E3,2.03E2,2.4997E4,5.449E3,4.1222E4,2.5993E4,2.168E3,5.187E3,7.524E3,1.94E2,1.8842E4,1.0352E4,1.0644E4,7.919E3,4.28E3,9E1,3.401E3,9.9E1,4.656E3,2.389E3,3.714E3,4.49E2,1.987E3,1.2E1,1.16E3,3E0,1.998E3,7.8E1,1.77E2,2.6E1,2.428E4,7.17E2,2.627E3,2.822E3,4.3E2,4.0792E4,1.603E4,9.963E3,1.377E3,7.91E2,4.629E3,5.58E2,7.058E3,4.66E2,1.71E2,2.3E1,7.998E3,1.0844E4,6.157E3,4.195E3,9.882E3,7.62E2,4.109E3,3.81E3,1.02E2,4.178E3,7.2E1,1.8E1,2.24E3,1.161E3,9.5E1,4E0,4.219E3,4.37E2,7.92E2,1.597E3,3.016E3,6.98E2,2.24E2,2.25E2,1.533E3,4.54E2,5.95E2,5.65E2,8.59E2,1.139E3,7.2E1,6E0,6.9E1,1.08E2,2.2E1,4E0],"tree_param":{"num_deleted":"0","num_feature":"3","num_nodes":"109","size_leaf_vector":"1"}},{"base_weights":[2.3987863E-2,-6.754784E-1,8.250699E0,-1.469621E0,1.3703068E0,6.546336E0,3.336861E1,-1.9534775E0,-4.3020764E-1,6.3242865E-1,5.8758883E0,3.5962853E0,1.0620522E1,2.8786247E1,9.98298E1,-1.9840397E0,7.0427723E0,-6.4871335E-1,4.450882E0,-2.7494976E-1,2.061895E0,5.2834167E0,2.6860605E1,2.6704063E0,8.786579E0,8.789221E0,2.537632E1,2.69794E1,1.4485094E2,8.62492E1,9.737539E1,-2.431692E0,-1.4624157E0,6.416936E0,1.9057148E1,-1.2914002E0,1.1080552E-1,8.534933E0,-1.6544387E0,-5.925942E-1,1.4490343E0,2.1749394E0,-5.205033E0,3.1184497E0,7.7038507E0,4.3094055E1,8.661682E0,1.5696163E0,3.5939114E0,8.457373E0,1.13977585E1,1.145841E1,6.0922484E0,2.4143278E1,5.2329407E1,1.8853985E1,4.3307438E1,2.1753527E1,3.3745612E2,1.3281287E2,3.671142E1,-9.645248E-1,-6.4296865E-1,-1.4267521E0,-3.8563624E-1,-3.652303E0,2.208197E0,-1.2925836E-1,-3.990565E-1,-5.0536834E-2,3.2590795E-1,6.431552E-1,3.3985589E0,-2.7094488E0,4.225745E-1,-1.0667245E-1,-1.133921E0,1.7516328E0,1.4105311E-1,4.5393917E-1,1.1840128E0,-9.1950905E-1,-2.117422E0,2.7436874E0,7.723168E-1,1.6214234E0,3.6322594E0,4.5332656E0,3.3453873E1,7.5888596E0,-1.10253105E1,4.435724E-1,1.6280609E0,4.558588E0,6.0115665E-1,2.3839314E0,6.633619E0,1.8631986E0,1.6448982E1,-2.224327E0,3.1809428E0,8.736497E0,5.595889E0,1.1909508E1,4.151813E0,2.516213E1,1.0388311E1,4.9552876E1,-9.60452E1,3.05418E1,1.3818626E2,3.6304768E1,6.946923E1,5.1492248E0,3.8131744E1],"categories":[],"categories_nodes":[],"categories_segments":[],"categories_sizes":[],"default_left":[0,0,0,0,0,0,0,0,0,0,0,0,0,0,0,0,0,0,0,0,0,0,0,0,0,0,0,0,0,0,0,0,0,0,0,0,0,0,0,0,0,0,0,0,0,0,0,0,0,0,0,0,0,0,0,0,0,0,0,0,0,0,0,0,0,0,0,0,0,0,0,0,0,0,0,0,0,0,0,0,0,0,0,0,0,0,0,0,0,0,0,0,0,0,0,0,0,0,0,0,0,0,0,0,0,0,0,0,0,0,0,0,0,0,0],"id":11,"left_children":[1,3,5,7,9,11,13,15,17,19,21,23,25,27,29,31,33,35,37,39,41,43,45,47,49,51,53,55,57,59,-1,61,63,65,-1,67,69,71,73,75,77,79,81,83,85,87,89,91,93,95,-1,97,99,101,-1,103,105,107,109,111,113,-1,-1,-1,-1,-1,-1,-1,-1,-1,-1,-1,-1,-1,-1,-1,-1,-1,-1,-1,-1,-1,-1,-1,-1,-1,-1,-1,-1,-1,-1,-1,-1,-1,-1,-1,-1,-1,-1,-1,-1,-1,-1,-1,-1,-1,-1,-1,-1,-1,-1,-1,-1,-1,-1],"loss_changes":[1.0646329E6,2.7703162E5,6.204417E5,6.177622E4,1.5852178E5,1.631565E5,2.7761612E5,2.3059031E4,4.161845E4,5.314658E4,8.328253E4,3.7830117E4,1.5385812E5,1.7707275E5,1.5209088E5,1.9502156E4,9.631177E3,1.8230922E4,4.1704516E4,1.3726805E4,1.3081172E4,3.41785E4,5.3986094E4,6.791246E3,1.1139516E4,3.6456562E4,1.1139328E5,1.1208744E5,3.0087872E5,1.26603875E5,0E0,1.01515625E4,2.247986E4,5.037297E3,0E0,6.746797E2,4.6639956E3,1.7865516E4,1.5174688E4,1.5987764E4,1.6755283E4,1.8364727E4,9.4595166E2,1.1279672E4,3.1128234E4,1.8402884E5,6.7406484E4,1.0637495E3,6.702383E4,8.056742E3,0E0,5.798191E5,1.5398058E5,1.6539812E4,0E0,5.9030625E4,9.638925E4,4.942127E5,9.822494E4,5.7610938E3,4.906046E4,0E0,0E0,0E0,0E0,0E0,0E0,0E0,0E0,0E0,0E0,0E0,0E0,0E0,0E0,0E0,0E0,0E0,0E0,0E0,0E0,0E0,0E0,0E0,0E0,0E0,0E0,0E0,0E0,0E0,0E0,0E0,0E0,0E0,0E0,0E0,0E0,0E0,0E0,0E0,0E0,0E0,0E0,0E0,0E0,0E0,0E0,0E0,0E0,0E0,0E0,0E0,0E0,0E0,0E0],"parents":[2147483647,0,0,1,1,2,2,3,3,4,4,5,5,6,6,7,7,8,8,9,9,10,10,11,11,12,12,13,13,14,14,15,15,16,16,17,17,18,18,19,19,20,20,21,21,22,22,23,23,24,24,25,25,26,26,27,27,28,28,29,29,31,31,32,32,33,33,35,35,36,36,37,37,38,38,39,39,40,40,41,41,42,42,43,43,44,44,45,45,46,46,47,47,48,48,49,49,51,51,52,52,53,53,55,55,56,56,57,57,58,58,59,59,60,60],"right_children":[2,4,6,8,10,12,14,16,18,20,22,24,26,28,30,32,34,36,38,40,42,44,46,48,50,52,54,56,58,60,-1,62,64,66,-1,68,70,72,74,76,78,80,82,84,86,88,90,92,94,96,-1,98,100,102,-1,104,106,108,110,112,114,-1,-1,-1,-1,-1,-1,-1,-1,-1,-1,-1,-1,-1,-1,-1,-1,-1,-1,-1,-1,-1,-1,-1,-1,-1,-1,-1,-1,-1,-1,-1,-1,-1,-1,-1,-1,-1,-1,-1,-1,-1,-1,-1,-1,-1,-1,-1,-1,-1,-1,-1,-1,-1,-1],"split_conditions":[9.205E1,3.955E1,4E0,2.27E1,3E0,2E0,2.532E2,6E0,4E0,2E0,6E0,2.0615E2,2.41E2,8E0,7.918E2,2E0,9E0,2E0,3.185E1,7.63E1,9.045E1,5.61E1,1E0,1.1915E2,7.918E2,1.2515E2,7.918E2,1.4855E2,1.2765E2,1E0,9.737539E1,8.15E0,2.95E0,3.35E0,1.9057148E1,2.3E1,3E0,2.45E1,3.395E1,7.155E1,7.9E1,6.43E1,1E0,4.09E1,4E0,5.94E1,7.155E1,2E0,1.2515E2,2E0,1.13977585E1,1.1915E2,1.35E2,1E0,5.2329407E1,1.041E2,1.5865E2,1.2515E2,1E0,6E0,5E0,-9.645248E-1,-6.4296865E-1,-1.4267521E0,-3.8563624E-1,-3.652303E0,2.208197E0,-1.2925836E-1,-3.990565E-1,-5.0536834E-2,3.2590795E-1,6.431552E-1,3.3985589E0,-2.7094488E0,4.225745E-1,-1.0667245E-1,-1.133921E0,1.7516328E0,1.4105311E-1,4.5393917E-1,1.1840128E0,-9.1950905E-1,-2.117422E0,2.7436874E0,7.723168E-1,1.6214234E0,3.6322594E0,4.5332656E0,3.3453873E1,7.5888596E0,-1.10253105E1,4.435724E-1,1.6280609E0,4.558588E0,6.0115665E-1,2.3839314E0,6.633619E0,1.8631986E0,1.6448982E1,-2.224327E0,3.1809428E0,8.736497E0,5.595889E0,1.1909508E1,4.151813E0,2.516213E1,1.0388311E1,4.9552876E1,-9.60452E1,3.05418E1,1.3818626E2,3.6304768E1,6.946923E1,5.1492248E0,3.8131744E1],"split_indices":[2,2,1,2,1,1,2,1,1,1,1,2,2,1,2,1,1,1,2,2,2,2,0,2,2,2,2,2,2,0,0,2,2,2,0,2,1,2,2,2,2,2,0,2,1,2,2,0,2,0,0,2,2,0,0,2,2,2,0,1,1,0,0,0,0,0,0,0,0,0,0,0,0,0,0,0,0,0,0,0,0,0,0,0,0,0,0,0,0,0,0,0,0,0,0,0,0,0,0,0,0,0,0,0,0,0,0,0,0,0,0,0,0,0,0],"split_type":[0,0,0,0,0,0,0,0,0,0,0,0,0,0,0,0,0,0,0,0,0,0,0,0,0,0,0,0,0,0,0,0,0,0,0,0,0,0,0,0,0,0,0,0,0,0,0,0,0,0,0,0,0,0,0,0,0,0,0,0,0,0,0,0,0,0,0,0,0,0,0,0,0,0,0,0,0,0,0,0,0,0,0,0,0,0,0,0,0,0,0,0,0,0,0,0,0,0,0,0,0,0,0,0,0,0,0,0,0,0,0,0,0,0,0],"sum_hessian":[1.85013E5,1.70516E5,1.4497E4,1.22834E5,4.7682E4,1.3577E4,9.2E2,8.3816E4,3.9018E4,4.0973E4,6.709E3,7.876E3,5.701E3,8.62E2,5.8E1,8.3533E4,2.83E2,3.7347E4,1.671E3,2.5064E4,1.5909E4,6.526E3,1.83E2,6.685E3,1.191E3,5.073E3,6.28E2,8.5E2,1.2E1,5.6E1,2E0,4.4952E4,3.8581E4,2.81E2,2E0,2.0229E4,1.7118E4,1.001E3,6.7E2,2.1165E4,3.899E3,1.5666E4,2.43E2,3.446E3,3.08E3,9.6E1,8.7E1,3.051E3,3.634E3,1.179E3,1.2E1,2.548E3,2.525E3,6.24E2,4E0,5.69E2,2.81E2,8E0,4E0,2.8E1,2.8E1,1.2095E4,3.2857E4,1.966E3,3.6615E4,1.3E1,2.68E2,8.73E2,1.9356E4,1.3309E4,3.809E3,3.05E2,6.96E2,1.96E2,4.74E2,1.9701E4,1.464E3,7.1E2,3.189E3,1.1407E4,4.259E3,1.14E2,1.29E2,2.84E2,3.162E3,2.025E3,1.055E3,6.9E1,2.7E1,6.4E1,2.3E1,2.982E3,6.9E1,4.37E2,3.197E3,1.138E3,4.1E1,2.274E3,2.74E2,6.32E2,1.893E3,3.25E2,2.99E2,1.09E2,4.6E2,4.8E1,2.33E2,6E0,2E0,2E0,2E0,2.7E1,1E0,2.4E1,4E0],"tree_param":{"num_deleted":"0","num_feature":"3","num_nodes":"115","size_leaf_vector":"1"}},{"base_weights":[1.9991728E-2,-5.131194E-1,5.409749E0,-9.5430344E-1,1.2327704E0,4.774957E0,3.976308E1,-1.0793802E0,1.8201349E0,6.780893E-1,4.5831385E0,3.6097858E0,1.3220923E1,2.7510899E1,7.583521E1,-1.643916E0,-6.546578E-1,2.0749273E0,-3.2328815E1,-4.8022293E-2,1.8163658E0,5.929388E0,-3.4131978E-2,3.0899253E0,1.27884E1,1.268719E1,8.219411E1,6.847928E1,1.2715579E1,6.487879E1,9.624459E1,-4.715074E0,-1.6073574E0,-1.0384382E0,-1.9051789E-1,1.2505978E0,8.582267E0,-2.416968E1,-2.1251184E1,-3.865345E-1,9.4133055E-1,2.040768E0,2.1131875E-2,3.582546E0,1.7103954E1,8.986604E0,-1.5741005E1,2.178936E0,5.5825343E0,8.090215E0,1.996361E1,9.236527E0,2.6158676E1,3.664111E1,9.0173935E1,-2.5029299E1,3.3916706E1,4.883569E1,9.261853E1,-8.496154E-1,-2.0607905E0,-5.647203E-1,-3.7550735E-1,-3.78973E-1,-2.6303482E-1,-1.6146213E-1,1.0809272E-1,5.4182076E-1,-1.2749797E0,4.1747856E0,8.9578545E-1,-3.7733133E0,-1.03468685E1,-8.2610376E-2,-1.130094E0,5.3074436E0,-1.2604281E-1,4.8766667E-1,2.960327E0,-2.334271E0,7.6770675E-1,1.0242844E0,2.3146626E1,6.225775E-1,1.3322386E1,-2.8735034E0,3.2477744E0,-1.3293399E1,-1.4024609E0,9.346184E-1,-5.578741E-1,4.0139627E0,1.1875824E0,2.0082273E0,1.2197104E1,9.897154E0,1.3403633E0,3.3550026E0,-5.7076774E0,8.205639E0,-1.0856106E1,1.9988659E1,-1.1690995E0,3.0821619E1,1.6025991E1,3.9038649E0,-2.2024868E1,2.4485804E1,1.3968161E0,2.9379988E1,1.0602119E1,2.2356873E1,5.2054123E1],"categories":[],"categories_nodes":[],"categories_segments":[],"categories_sizes":[],"default_left":[0,0,0,0,0,0,0,0,0,0,0,0,0,0,0,0,0,0,0,0,0,0,0,0,0,0,0,0,0,0,0,0,0,0,0,0,0,0,0,0,0,0,0,0,0,0,0,0,0,0,0,0,0,0,0,0,0,0,0,0,0,0,0,0,0,0,0,0,0,0,0,0,0,0,0,0,0,0,0,0,0,0,0,0,0,0,0,0,0,0,0,0,0,0,0,0,0,0,0,0,0,0,0,0,0,0,0,0,0,0,0,0,0],"id":12,"left_children":[1,3,5,7,9,11,13,15,17,19,21,23,25,27,29,31,33,35,37,39,41,43,45,47,49,51,-1,53,55,57,-1,59,61,63,65,67,69,71,-1,73,75,77,79,81,83,85,87,89,91,93,95,97,99,101,103,105,107,109,111,-1,-1,-1,-1,-1,-1,-1,-1,-1,-1,-1,-1,-1,-1,-1,-1,-1,-1,-1,-1,-1,-1,-1,-1,-1,-1,-1,-1,-1,-1,-1,-1,-1,-1,-1,-1,-1,-1,-1,-1,-1,-1,-1,-1,-1,-1,-1,-1,-1,-1,-1,-1,-1,-1],"loss_changes":[5.316108E5,1.296835E5,3.6296566E5,4.664114E4,6.3113254E4,1.6087234E5,1.3138634E5,3.0834188E4,5.051485E4,2.4084758E4,2.9986172E4,6.853314E4,2.7237084E5,1.3672308E5,1.831779E5,6.1915938E3,1.3072781E4,3.0865553E4,1.1798309E4,5.959048E3,4.5719453E3,9.788889E4,1.5458089E5,3.0874438E4,2.579554E4,9.175328E4,0E0,3.813903E4,1.3528823E5,2.840925E4,0E0,2.6131875E3,5.3354062E3,1.4588203E3,6.3621826E3,1.5620703E4,1.9270734E4,3.9924258E3,0E0,4.9808467E3,1.0345036E5,3.2768574E4,2.5008408E4,3.7965207E4,2.6581044E5,2.376736E4,1.25625766E5,3.76849E4,4.6037844E4,2.096105E4,6.121847E4,8.698108E4,3.0975656E4,3.1866465E4,1.0674906E4,1.13240766E5,1.5036747E5,2.9005734E4,2.5129312E4,0E0,0E0,0E0,0E0,0E0,0E0,0E0,0E0,0E0,0E0,0E0,0E0,0E0,0E0,0E0,0E0,0E0,0E0,0E0,0E0,0E0,0E0,0E0,0E0,0E0,0E0,0E0,0E0,0E0,0E0,0E0,0E0,0E0,0E0,0E0,0E0,0E0,0E0,0E0,0E0,0E0,0E0,0E0,0E0,0E0,0E0,0E0,0E0,0E0,0E0,0E0,0E0,0E0,0E0],"parents":[2147483647,0,0,1,1,2,2,3,3,4,4,5,5,6,6,7,7,8,8,9,9,10,10,11,11,12,12,13,13,14,14,15,15,16,16,17,17,18,18,19,19,20,20,21,21,22,22,23,23,24,24,25,25,27,27,28,28,29,29,31,31,32,32,33,33,34,34,35,35,36,36,37,37,39,39,40,40,41,41,42,42,43,43,44,44,45,45,46,46,47,47,48,48,49,49,50,50,51,51,52,52,53,53,54,54,55,55,56,56,57,57,58,58],"right_children":[2,4,6,8,10,12,14,16,18,20,22,24,26,28,30,32,34,36,38,40,42,44,46,48,50,52,-1,54,56,58,-1,60,62,64,66,68,70,72,-1,74,76,78,80,82,84,86,88,90,92,94,96,98,100,102,104,106,108,110,112,-1,-1,-1,-1,-1,-1,-1,-1,-1,-1,-1,-1,-1,-1,-1,-1,-1,-1,-1,-1,-1,-1,-1,-1,-1,-1,-1,-1,-1,-1,-1,-1,-1,-1,-1,-1,-1,-1,-1,-1,-1,-1,-1,-1,-1,-1,-1,-1,-1,-1,-1,-1,-1,-1],"split_conditions":[8.64E1,4.65E1,5E0,4E0,3E0,3E0,1.5865E2,1.59E1,4.575E1,2E0,7.155E1,2.532E2,7.918E2,1.041E2,7E0,1E0,2E0,3.81E1,6E0,6.985E1,7.9E1,6.32E1,4E0,1.4855E2,2E0,1.6805E2,8.219411E1,9.205E1,1.136E2,2.41E2,9.624459E1,2E0,2E0,2.405E1,3.025E1,3.225E1,4.215E1,1E0,-2.1251184E1,6.8E1,7.155E1,7.63E1,8.03E1,8E0,4E0,7.255E1,7.495E1,1.2765E2,1.5865E2,2E0,1E0,1.5865E2,2E0,9.045E1,6E0,1.11E2,1.2515E2,1.6805E2,6E0,-8.496154E-1,-2.0607905E0,-5.647203E-1,-3.7550735E-1,-3.78973E-1,-2.6303482E-1,-1.6146213E-1,1.0809272E-1,5.4182076E-1,-1.2749797E0,4.1747856E0,8.9578545E-1,-3.7733133E0,-1.03468685E1,-8.2610376E-2,-1.130094E0,5.3074436E0,-1.2604281E-1,4.8766667E-1,2.960327E0,-2.334271E0,7.6770675E-1,1.0242844E0,2.3146626E1,6.225775E-1,1.3322386E1,-2.8735034E0,3.2477744E0,-1.3293399E1,-1.4024609E0,9.346184E-1,-5.578741E-1,4.0139627E0,1.1875824E0,2.0082273E0,1.2197104E1,9.897154E0,1.3403633E0,3.3550026E0,-5.7076774E0,8.205639E0,-1.0856106E1,1.9988659E1,-1.1690995E0,3.0821619E1,1.6025991E1,3.9038649E0,-2.2024868E1,2.4485804E1,1.3968161E0,2.9379988E1,1.0602119E1,2.2356873E1,5.2054123E1],"split_indices":[2,2,1,1,1,1,2,2,2,1,2,2,2,2,1,2,1,2,1,2,2,2,1,2,1,2,0,2,2,2,0,1,1,2,2,2,2,0,0,2,2,2,2,1,1,2,2,2,2,0,0,2,0,2,1,2,2,2,1,0,0,0,0,0,0,0,0,0,0,0,0,0,0,0,0,0,0,0,0,0,0,0,0,0,0,0,0,0,0,0,0,0,0,0,0,0,0,0,0,0,0,0,0,0,0,0,0,0,0,0,0,0,0],"split_type":[0,0,0,0,0,0,0,0,0,0,0,0,0,0,0,0,0,0,0,0,0,0,0,0,0,0,0,0,0,0,0,0,0,0,0,0,0,0,0,0,0,0,0,0,0,0,0,0,0,0,0,0,0,0,0,0,0,0,0,0,0,0,0,0,0,0,0,0,0,0,0,0,0,0,0,0,0,0,0,0,0,0,0,0,0,0,0,0,0,0,0,0,0,0,0,0,0,0,0,0,0,0,0,0,0,0,0,0,0,0,0,0,0],"sum_hessian":[1.85013E5,1.68361E5,1.6652E4,1.34399E5,3.3962E4,1.6351E4,3.01E2,1.28602E5,5.797E3,2.9139E4,4.823E3,1.437E4,1.981E3,2.26E2,7.5E1,5.5212E4,7.339E4,5.755E3,4.2E1,1.7791E4,1.1348E4,3.734E3,1.089E3,1.3601E4,7.69E2,1.978E3,3E0,5.9E1,1.67E2,7.3E1,2E0,6.48E2,5.4564E4,4.0172E4,3.3218E4,5.109E3,6.46E2,3.6E1,6E0,1.3256E4,4.535E3,1.0087E4,1.261E3,3.087E3,6.47E2,6.92E2,3.97E2,9.962E3,3.639E3,4.66E2,3.03E2,1.576E3,4.02E2,2.5E1,3.4E1,6E1,1.07E2,4.8E1,2.5E1,3.47E2,3.01E2,3.0767E4,2.3797E4,1.6801E4,2.3371E4,2.0364E4,1.2854E4,4.641E3,4.68E2,3.3E2,3.16E2,1.8E1,1.8E1,1.2835E4,4.21E2,3.4E2,4.195E3,9.58E3,5.07E2,3.09E2,9.52E2,3.081E3,6E0,4.18E2,2.29E2,6.2E1,6.3E2,1.1E2,2.87E2,8.087E3,1.875E3,6.26E2,3.013E3,4.48E2,1.8E1,1.64E2,1.39E2,1.475E3,1.01E2,3.95E2,7E0,1.4E1,1.1E1,2.4E1,1E1,3.4E1,2.6E1,4E1,6.7E1,9E0,3.9E1,2.2E1,3E0],"tree_param":{"num_deleted":"0","num_feature":"3","num_nodes":"113","size_leaf_vector":"1"}},{"base_weights":[1.6081862E-2,-2.7103493E-1,5.750377E0,-6.2814903E-1,1.1921314E0,2.3410894E1,4.0922117E0,-6.5466774E-1,7.2039566E0,1.1632048E0,5.664887E1,1.5797683E1,6.901438E1,-5.7359304E0,6.375211E0,-1.0148798E0,-1.6472931E-1,5.264802E0,1.8245804E1,7.1948117E-1,3.873788E0,6.650688E1,-1.481014E1,9.714608E0,2.8232372E1,6.615954E1,5.6172382E1,-5.471766E0,-1.0455237E2,4.9033732E0,2.7350332E1,-1.3637997E0,-7.5143105E-1,-5.940054E-2,-4.4400253E0,3.712963E0,1.835104E1,5.02683E1,4.70231E0,7.799324E0,5.94244E-1,1.8643312E1,3.6289814E0,4.414645E1,1.22551544E2,-2.9605354E1,2.294079E1,2.0863905E0,1.2203167E1,2.723749E1,1.4326991E1,2.3540548E1,1.4632933E1,-6.995935E-2,-1.16517E1,-7.711553E1,5.294187E1,4.76996E0,5.2502483E1,2.5438612E1,2.2411096E2,-3.1911218E-1,-8.1410164E-1,1.2675774E0,-2.506119E-1,-9.586645E-2,4.72525E-1,-1.1795949E0,-5.00398E0,1.6097386E0,-3.3386586E0,3.4151442E0,1.3022041E1,1.573459E1,5.9110265E0,-2.7131238E0,6.9699574E0,1.7140433E0,3.0807457E0,-8.13368E-1,2.2380355E-1,5.725467E0,-2.3699663E0,-1.7968105E0,1.2269146E0,1.7423029E1,3.0727808E0,4.1750393E1,1.0905341E1,3.7660048E0,1.6257393E0,9.212694E0,6.8179708E0,2.8749853E-1,-1.3627497E1,-3.8170536E0,1.161427E1,8.46545E-1,2.26252E0,7.685359E0,3.3570602E1,7.232713E0,6.1461426E1,-1.6710718E1,1.00784874E2],"categories":[],"categories_nodes":[],"categories_segments":[],"categories_sizes":[],"default_left":[0,0,0,0,0,0,0,0,0,0,0,0,0,0,0,0,0,0,0,0,0,0,0,0,0,0,0,0,0,0,0,0,0,0,0,0,0,0,0,0,0,0,0,0,0,0,0,0,0,0,0,0,0,0,0,0,0,0,0,0,0,0,0,0,0,0,0,0,0,0,0,0,0,0,0,0,0,0,0,0,0,0,0,0,0,0,0,0,0,0,0,0,0,0,0,0,0,0,0,0,0,0,0,0,0],"id":13,"left_children":[1,3,5,7,9,11,13,15,17,19,21,23,25,27,29,31,33,35,37,39,41,43,45,47,49,51,-1,53,55,57,59,61,63,65,67,69,71,73,75,77,79,81,83,85,87,-1,-1,-1,89,91,-1,-1,-1,93,95,-1,-1,97,99,101,103,-1,-1,-1,-1,-1,-1,-1,-1,-1,-1,-1,-1,-1,-1,-1,-1,-1,-1,-1,-1,-1,-1,-1,-1,-1,-1,-1,-1,-1,-1,-1,-1,-1,-1,-1,-1,-1,-1,-1,-1,-1,-1,-1,-1],"loss_changes":[3.0461094E5,9.206464E4,2.5824816E5,2.9420281E4,5.538559E4,2.6173178E5,1.8101861E5,2.4910234E4,1.0138805E4,4.1552227E4,1.3664965E4,4.889247E4,2.406425E4,3.913178E4,2.0195381E5,7.4763203E3,2.6931525E4,8.217419E3,3.0556076E4,2.6321162E4,1.7504547E4,1.4640703E4,3.0514352E4,2.9234727E3,2.8366094E3,1.9067156E4,0E0,5.067428E4,2.167874E5,3.8601047E4,1.5566784E5,1.4172715E4,1.9366777E4,2.4820473E4,8.876465E3,9.038077E3,7.012338E3,3.660586E2,1.3201168E4,2.5995957E3,1.4638567E4,1.0767207E3,2.1215934E4,5.544926E3,6.7045703E2,0E0,0E0,0E0,4.759961E2,2.5123125E3,0E0,0E0,0E0,3.786697E4,3.8712414E4,0E0,0E0,3.2928375E4,2.4281176E4,9.669078E4,1.4388889E5,0E0,0E0,0E0,0E0,0E0,0E0,0E0,0E0,0E0,0E0,0E0,0E0,0E0,0E0,0E0,0E0,0E0,0E0,0E0,0E0,0E0,0E0,0E0,0E0,0E0,0E0,0E0,0E0,0E0,0E0,0E0,0E0,0E0,0E0,0E0,0E0,0E0,0E0,0E0,0E0,0E0,0E0,0E0,0E0],"parents":[2147483647,0,0,1,1,2,2,3,3,4,4,5,5,6,6,7,7,8,8,9,9,10,10,11,11,12,12,13,13,14,14,15,15,16,16,17,17,18,18,19,19,20,20,21,21,22,22,23,23,24,24,25,25,27,27,28,28,29,29,30,30,31,31,32,32,33,33,34,34,35,35,36,36,37,37,38,38,39,39,40,40,41,41,42,42,43,43,44,44,48,48,49,49,53,53,54,54,57,57,58,58,59,59,60,60],"right_children":[2,4,6,8,10,12,14,16,18,20,22,24,26,28,30,32,34,36,38,40,42,44,46,48,50,52,-1,54,56,58,60,62,64,66,68,70,72,74,76,78,80,82,84,86,88,-1,-1,-1,90,92,-1,-1,-1,94,96,-1,-1,98,100,102,104,-1,-1,-1,-1,-1,-1,-1,-1,-1,-1,-1,-1,-1,-1,-1,-1,-1,-1,-1,-1,-1,-1,-1,-1,-1,-1,-1,-1,-1,-1,-1,-1,-1,-1,-1,-1,-1,-1,-1,-1,-1,-1,-1,-1],"split_conditions":[1.1915E2,5.115E1,1.2515E2,6E0,8E0,3E0,1.35E2,2.19E1,3.955E1,3E0,1.11E2,2E0,7E0,7E0,4E0,1.065E1,5.03E1,7E0,4.245E1,5.14E1,5.14E1,9.205E1,1.136E2,1E0,2E0,1E0,5.6172382E1,1.2765E2,1.2765E2,7.918E2,8E0,9.5E0,1.085E1,3E0,4E0,3.215E1,2.655E1,2E0,4.65E1,2E0,5.235E1,2E0,5.235E1,7.63E1,1.089E2,-2.9605354E1,2.294079E1,2.0863905E0,2E0,1E0,1.4326991E1,2.3540548E1,1.4632933E1,5E0,5E0,-7.711553E1,5.294187E1,2E0,2E0,7.918E2,1E0,-3.1911218E-1,-8.1410164E-1,1.2675774E0,-2.506119E-1,-9.586645E-2,4.72525E-1,-1.1795949E0,-5.00398E0,1.6097386E0,-3.3386586E0,3.4151442E0,1.3022041E1,1.573459E1,5.9110265E0,-2.7131238E0,6.9699574E0,1.7140433E0,3.0807457E0,-8.13368E-1,2.2380355E-1,5.725467E0,-2.3699663E0,-1.7968105E0,1.2269146E0,1.7423029E1,3.0727808E0,4.1750393E1,1.0905341E1,3.7660048E0,1.6257393E0,9.212694E0,6.8179708E0,2.8749853E-1,-1.3627497E1,-3.8170536E0,1.161427E1,8.46545E-1,2.26252E0,7.685359E0,3.3570602E1,7.232713E0,6.1461426E1,-1.6710718E1,1.00784874E2],"split_indices":[2,2,2,1,1,1,2,2,2,1,2,1,1,1,1,2,2,1,2,2,2,2,2,0,0,0,0,2,2,2,1,2,2,1,1,2,2,0,2,1,2,0,2,2,2,0,0,0,0,0,0,0,0,1,1,0,0,1,1,2,0,0,0,0,0,0,0,0,0,0,0,0,0,0,0,0,0,0,0,0,0,0,0,0,0,0,0,0,0,0,0,0,0,0,0,0,0,0,0,0,0,0,0,0,0],"split_type":[0,0,0,0,0,0,0,0,0,0,0,0,0,0,0,0,0,0,0,0,0,0,0,0,0,0,0,0,0,0,0,0,0,0,0,0,0,0,0,0,0,0,0,0,0,0,0,0,0,0,0,0,0,0,0,0,0,0,0,0,0,0,0,0,0,0,0,0,0,0,0,0,0,0,0,0,0,0,0,0,0,0,0,0,0,0,0,0,0,0,0,0,0,0,0,0,0,0,0,0,0,0,0,0,0],"sum_hessian":[1.85013E5,1.76192E5,8.821E3,1.41626E5,3.4566E4,7.56E2,8.065E3,1.41149E5,4.77E2,3.4549E4,1.7E1,6.49E2,1.07E2,1.52E3,6.545E3,8.1343E4,5.9806E4,4.07E2,7E1,2.969E4,4.859E3,1.5E1,2E0,4.37E2,2.12E2,1.06E2,1E0,1.517E3,3E0,6.117E3,4.28E2,3.4993E4,4.635E4,5.8369E4,1.437E3,3.65E2,4.2E1,2E1,5E1,5.15E2,2.9175E4,7.8E1,4.781E3,1.2E1,3E0,1E0,1E0,2.09E2,2.28E2,2.04E2,8E0,6E1,4.6E1,8.1E2,7.07E2,2E0,1E0,6.101E3,1.6E1,4.25E2,3E0,2.863E4,6.363E3,7.68E2,4.5582E4,5.0355E4,8.014E3,1.381E3,5.6E1,3.29E2,3.6E1,3.4E1,8E0,1.8E1,2E0,2.9E1,2.1E1,2.81E2,2.34E2,1.28E3,2.7895E4,7.7E1,1E0,2.18E2,4.563E3,8E0,4E0,2E0,1E0,2.16E2,1.2E1,1.12E2,9.2E1,7.93E2,1.7E1,6.93E2,1.4E1,3.584E3,2.517E3,1.2E1,4E0,4.23E2,2E0,1E0,2E0],"tree_param":{"num_deleted":"0","num_feature":"3","num_nodes":"105","size_leaf_vector":"1"}},{"base_weights":[1.3460089E-2,-1.8911159E-1,4.0592203E0,-4.7399086E-1,8.0863315E-1,1.6562239E1,2.8853E0,-5.198198E-1,2.6054711E0,7.462123E-1,1.6300549E1,1.1116585E1,4.918365E1,-4.0346923E0,4.4927583E0,-9.2997146E-1,-3.3050692E-1,6.334077E-1,6.335874E0,-7.727354E-2,1.6715502E0,3.1512506E1,2.3584108E0,6.8173037E0,1.9905169E1,4.666845E1,4.774653E1,-1.9841415E0,-1.5535896E1,4.2094407E0,8.130888E1,-2.7430167E0,-8.768751E-1,2.7914143E0,-4.3280867E-1,2.3609924E0,-3.5503387E0,1.3527132E1,1.92655E0,-3.2424146E-1,3.4086335E-1,1.4648267E0,3.4995568E0,4.624752E1,-9.7674164E1,-1.691578E1,6.81723E1,1.4634525E0,8.565775E0,1.9144424E1,1.0506466E1,1.6594164E1,3.445484E1,1.2485301E0,-5.657024E0,-1.8431313E1,1.5266301E2,2.9049819E0,1.2983277E1,3.722758E1,1.3002065E2,-3.6697656E-1,-1.3331904E0,-1.9799073E-1,-3.8599595E-1,-1.4398016E-1,3.2335103E0,-1.2670276E0,-9.68707E-2,2.1507632E-2,2.998563E0,-3.8703892E0,-3.3975047E-1,3.4760134E0,7.648385E0,-1.9520719E0,2.8713994E0,6.579408E-3,-1.7723553E0,6.955962E-1,-3.2662924E-2,2.692242E-1,7.1447986E-1,2.2267659E0,-5.885753E-1,3.804505E0,2.7285147E1,4.8813295E0,-8.790199E1,-5.803238E-1,-1.6777897E1,-1.2588603E0,3.6355625E1,2.6414137E0,1.1755364E0,6.4733405E0,4.794566E0,9.499958E0,1.9438393E1,-1.712755E-1,1.2049351E0,-5.763335E-1,-2.7547638E0,-2.9430323E0,-8.302309E0,3.9778566E0,5.8413303E1,6.620612E-1,2.2061124E0,3.661727E0,5.1963356E1,1.567035E1,5.832926E0,2.691794E1,7.994437E1],"categories":[],"categories_nodes":[],"categories_segments":[],"categories_sizes":[],"default_left":[0,0,0,0,0,0,0,0,0,0,0,0,0,0,0,0,0,0,0,0,0,0,0,0,0,0,0,0,0,0,0,0,0,0,0,0,0,0,0,0,0,0,0,0,0,0,0,0,0,0,0,0,0,0,0,0,0,0,0,0,0,0,0,0,0,0,0,0,0,0,0,0,0,0,0,0,0,0,0,0,0,0,0,0,0,0,0,0,0,0,0,0,0,0,0,0,0,0,0,0,0,0,0,0,0,0,0,0,0,0,0,0,0,0,0],"id":14,"left_children":[1,3,5,7,9,11,13,15,17,19,21,23,25,27,29,31,33,35,37,39,41,43,45,47,49,51,-1,53,55,57,59,61,63,65,67,69,71,73,75,77,79,81,83,85,87,89,91,-1,93,95,-1,-1,97,99,101,103,105,107,109,111,113,-1,-1,-1,-1,-1,-1,-1,-1,-1,-1,-1,-1,-1,-1,-1,-1,-1,-1,-1,-1,-1,-1,-1,-1,-1,-1,-1,-1,-1,-1,-1,-1,-1,-1,-1,-1,-1,-1,-1,-1,-1,-1,-1,-1,-1,-1,-1,-1,-1,-1,-1,-1,-1,-1],"loss_changes":[1.5163019E5,5.0080918E4,1.2943758E5,1.9344422E4,3.7831133E4,1.3393042E5,8.974108E4,1.0486E4,1.4782735E4,2.9701467E4,3.3223375E4,2.442429E4,2.2445297E4,3.5840137E4,1.4212064E5,4.10325E3,2.9512695E4,9.520137E3,2.201141E4,2.12998E3,6.930703E3,1.4728472E5,1.0643947E5,1.4432598E3,1.7789688E3,9.3925E3,0E0,1.5347267E4,1.1482517E5,7.461873E4,4.6694297E4,3.1302178E3,3.682207E3,7.661277E4,3.727382E4,1.6287861E4,8.689892E3,5.835203E3,2.7914152E4,2.506396E4,6.812865E3,8.576289E3,3.99514E4,1.0088008E5,1.8282522E5,3.7879848E4,7.3401625E4,0E0,2.1978516E2,1.23275E3,0E0,0E0,1.9242344E3,3.4671208E3,7.950838E3,1.7817281E4,2.0864773E4,1.7624176E4,1.03031766E5,2.7208652E3,3.657383E4,0E0,0E0,0E0,0E0,0E0,0E0,0E0,0E0,0E0,0E0,0E0,0E0,0E0,0E0,0E0,0E0,0E0,0E0,0E0,0E0,0E0,0E0,0E0,0E0,0E0,0E0,0E0,0E0,0E0,0E0,0E0,0E0,0E0,0E0,0E0,0E0,0E0,0E0,0E0,0E0,0E0,0E0,0E0,0E0,0E0,0E0,0E0,0E0,0E0,0E0,0E0,0E0,0E0,0E0],"parents":[2147483647,0,0,1,1,2,2,3,3,4,4,5,5,6,6,7,7,8,8,9,9,10,10,11,11,12,12,13,13,14,14,15,15,16,16,17,17,18,18,19,19,20,20,21,21,22,22,23,23,24,24,25,25,27,27,28,28,29,29,30,30,31,31,32,32,33,33,34,34,35,35,36,36,37,37,38,38,39,39,40,40,41,41,42,42,43,43,44,44,45,45,46,46,48,48,49,49,52,52,53,53,54,54,55,55,56,56,57,57,58,58,59,59,60,60],"right_children":[2,4,6,8,10,12,14,16,18,20,22,24,26,28,30,32,34,36,38,40,42,44,46,48,50,52,-1,54,56,58,60,62,64,66,68,70,72,74,76,78,80,82,84,86,88,90,92,-1,94,96,-1,-1,98,100,102,104,106,108,110,112,114,-1,-1,-1,-1,-1,-1,-1,-1,-1,-1,-1,-1,-1,-1,-1,-1,-1,-1,-1,-1,-1,-1,-1,-1,-1,-1,-1,-1,-1,-1,-1,-1,-1,-1,-1,-1,-1,-1,-1,-1,-1,-1,-1,-1,-1,-1,-1,-1,-1,-1,-1,-1,-1,-1],"split_conditions":[1.1915E2,4.845E1,1.2515E2,5E0,6E0,3E0,1.35E2,1.225E1,2.45E1,2E0,1E0,2E0,7E0,3E0,6E0,1.35E0,1.305E1,1.78E1,3.225E1,7.365E1,4E0,1.041E2,7E0,1E0,2E0,1E0,4.774653E1,1.2765E2,2E0,3E0,1.6805E2,2E0,9.5E0,1.285E1,1.375E1,1.375E1,1.91E1,3.14E1,3.955E1,7.155E1,7.9E1,7.255E1,7.155E1,6.985E1,7E0,8.53E1,8.53E1,1.4634525E0,2E0,1E0,1.0506466E1,1.6594164E1,2E0,2E0,1E0,1E0,1.2765E2,2.532E2,7.918E2,1.4855E2,8E0,-3.6697656E-1,-1.3331904E0,-1.9799073E-1,-3.8599595E-1,-1.4398016E-1,3.2335103E0,-1.2670276E0,-9.68707E-2,2.1507632E-2,2.998563E0,-3.8703892E0,-3.3975047E-1,3.4760134E0,7.648385E0,-1.9520719E0,2.8713994E0,6.579408E-3,-1.7723553E0,6.955962E-1,-3.2662924E-2,2.692242E-1,7.1447986E-1,2.2267659E0,-5.885753E-1,3.804505E0,2.7285147E1,4.8813295E0,-8.790199E1,-5.803238E-1,-1.6777897E1,-1.2588603E0,3.6355625E1,2.6414137E0,1.1755364E0,6.4733405E0,4.794566E0,9.499958E0,1.9438393E1,-1.712755E-1,1.2049351E0,-5.763335E-1,-2.7547638E0,-2.9430323E0,-8.302309E0,3.9778566E0,5.8413303E1,6.620612E-1,2.2061124E0,3.661727E0,5.1963356E1,1.567035E1,5.832926E0,2.691794E1,7.994437E1],"split_indices":[2,2,2,1,1,1,2,2,2,1,0,1,1,1,1,2,2,2,2,2,1,2,1,0,0,0,0,2,0,1,2,1,2,2,2,2,2,2,2,2,2,2,2,2,1,2,2,0,0,0,0,0,0,1,0,0,2,2,2,2,1,0,0,0,0,0,0,0,0,0,0,0,0,0,0,0,0,0,0,0,0,0,0,0,0,0,0,0,0,0,0,0,0,0,0,0,0,0,0,0,0,0,0,0,0,0,0,0,0,0,0,0,0,0,0],"split_type":[0,0,0,0,0,0,0,0,0,0,0,0,0,0,0,0,0,0,0,0,0,0,0,0,0,0,0,0,0,0,0,0,0,0,0,0,0,0,0,0,0,0,0,0,0,0,0,0,0,0,0,0,0,0,0,0,0,0,0,0,0,0,0,0,0,0,0,0,0,0,0,0,0,0,0,0,0,0,0,0,0,0,0,0,0,0,0,0,0,0,0,0,0,0,0,0,0,0,0,0,0,0,0,0,0,0,0,0,0,0,0,0,0,0,0],"sum_hessian":[1.85013E5,1.76192E5,8.821E3,1.37059E5,3.9133E4,7.56E2,8.065E3,1.3505E5,2.009E3,3.8977E4,1.56E2,6.49E2,1.07E2,1.52E3,6.545E3,4.2648E4,9.2402E4,1.315E3,6.94E2,2.0624E4,1.8353E4,7.4E1,8.2E1,4.37E2,2.12E2,1.06E2,1E0,1.291E3,2.29E2,6.522E3,2.3E1,1.212E3,4.1436E4,2.931E3,8.9471E4,9.31E2,3.84E2,2.63E2,4.31E2,1.2966E4,7.658E3,1.649E4,1.863E3,6.7E1,7E0,6.4E1,1.8E1,2.09E2,2.28E2,2.04E2,8E0,6E1,4.6E1,6.87E2,6.04E2,2.26E2,3E0,5.679E3,8.43E2,1.3E1,1E1,6.41E2,5.71E2,2.7096E4,1.434E4,2.08E3,8.51E2,2.52E3,8.6951E4,7.17E2,2.14E2,7.8E1,3.06E2,2.28E2,3.5E1,2.05E2,2.26E2,1.221E4,7.56E2,1.418E3,6.24E3,1.0187E4,6.303E3,1.084E3,7.79E2,3.9E1,2.8E1,5E0,2E0,4.7E1,1.7E1,8E0,1E1,2.16E2,1.2E1,1.12E2,9.2E1,4.4E1,2E0,4.15E2,2.72E2,2.94E2,3.1E2,1.18E2,1.08E2,1E0,2E0,4.91E3,7.69E2,8.4E2,3E0,6E0,7E0,9E0,1E0],"tree_param":{"num_deleted":"0","num_feature":"3","num_nodes":"115","size_leaf_vector":"1"}},{"base_weights":[1.1226695E-2,-8.568958E-2,4.8485303E0,-5.3701874E-2,-7.99065E0,4.556164E0,1.0072918E2,-9.763463E-2,1.0879673E1,-8.93261E0,6.081786E1,4.310258E0,5.0986664E1,6.550029E1,6.795271E1,-2.8170735E-1,9.544477E-1,7.360241E0,3.351683E1,-1.0046149E1,2.1262392E1,2.8291412E1,-1.4625903E1,3.2110438E0,1.1839705E1,4.9462137E0,1.0777295E2,2.7507874E1,4.3493996E1,-2.3291865E-1,-4.864736E0,7.8833693E-1,1.03373E1,4.3143435E0,1.2783069E1,2.9839972E1,3.346315E1,-7.137094E0,-2.775418E1,-9.4125366E-1,1.14705956E2,2.0088277E0,5.266853E0,7.811187E0,2.3684282E1,1.6309204E1,4.0271595E1,-1.3071875E1,2.1406677E1,-8.56077E-2,2.439702E0,-1.1387814E0,-6.1490006E0,3.0308998E-1,-5.193563E-1,9.552872E0,9.601755E-1,1.1675284E0,1.4235423E0,1.7971214E0,5.8033295E0,9.372531E0,-1.5079065E1,-1.7775418E0,-2.788637E0,-4.3950176E0,-1.2498554E1,-6.458319E0,4.4900703E0,1.3388038E1,4.3964943E1,5.575061E-1,2.209086E0,2.4714158E0,6.3865924E-1,2.7697382E0,-2.213779E1,1.05298195E1,3.3758578E0,-1.6791847E1,1.0255908E1],"categories":[],"categories_nodes":[],"categories_segments":[],"categories_sizes":[],"default_left":[0,0,0,0,0,0,0,0,0,0,0,0,0,0,0,0,0,0,0,0,0,0,0,0,0,0,0,0,0,0,0,0,0,0,0,0,0,0,0,0,0,0,0,0,0,0,0,0,0,0,0,0,0,0,0,0,0,0,0,0,0,0,0,0,0,0,0,0,0,0,0,0,0,0,0,0,0,0,0,0,0],"id":15,"left_children":[1,3,5,7,9,11,13,15,17,19,21,23,25,27,-1,29,31,33,35,37,39,-1,-1,41,43,-1,45,47,-1,49,51,53,55,57,59,61,-1,63,65,67,69,71,73,75,77,-1,-1,79,-1,-1,-1,-1,-1,-1,-1,-1,-1,-1,-1,-1,-1,-1,-1,-1,-1,-1,-1,-1,-1,-1,-1,-1,-1,-1,-1,-1,-1,-1,-1,-1,-1],"loss_changes":[8.673747E4,4.5863855E4,1.0141035E5,8.677376E4,4.792288E4,4.115732E4,3.3905516E4,3.4845258E4,5.735468E4,2.4489664E4,4.128947E4,2.980696E4,3.5445742E4,2.6208164E4,0E0,3.4240297E4,4.175123E4,1.0301246E4,2.4500281E4,3.570693E4,5.4052453E4,0E0,0E0,7.769787E3,2.1716695E4,0E0,2.5967734E3,1.5167385E4,0E0,6.647285E4,2.6871195E4,1.4725448E4,7.141947E4,5.4898438E1,9.912172E3,1.2125477E4,0E0,1.5144219E3,1.724993E4,7.527045E3,4.6179062E3,1.5881626E3,1.0807152E4,4.057887E4,1.6066133E4,0E0,0E0,1.2050622E4,0E0,0E0,0E0,0E0,0E0,0E0,0E0,0E0,0E0,0E0,0E0,0E0,0E0,0E0,0E0,0E0,0E0,0E0,0E0,0E0,0E0,0E0,0E0,0E0,0E0,0E0,0E0,0E0,0E0,0E0,0E0,0E0,0E0],"parents":[2147483647,0,0,1,1,2,2,3,3,4,4,5,5,6,6,7,7,8,8,9,9,10,10,11,11,12,12,13,13,15,15,16,16,17,17,18,18,19,19,20,20,23,23,24,24,26,26,27,27,29,29,30,30,31,31,32,32,33,33,34,34,35,35,37,37,38,38,39,39,40,40,41,41,42,42,43,43,44,44,47,47],"right_children":[2,4,6,8,10,12,14,16,18,20,22,24,26,28,-1,30,32,34,36,38,40,-1,-1,42,44,-1,46,48,-1,50,52,54,56,58,60,62,-1,64,66,68,70,72,74,76,78,-1,-1,80,-1,-1,-1,-1,-1,-1,-1,-1,-1,-1,-1,-1,-1,-1,-1,-1,-1,-1,-1,-1,-1,-1,-1,-1,-1,-1,-1,-1,-1,-1,-1,-1,-1],"split_conditions":[1.6805E2,1.5865E2,6E0,1.4855E2,5E0,7.918E2,8E0,6.01E1,3E0,2E0,1E0,3E0,2E0,2.532E2,6.795271E1,5.89E1,5E0,2E0,2E0,3E0,3E0,2.8291412E1,-1.4625903E1,2E0,2.532E2,4.9462137E0,3E0,1E0,4.3493996E1,5.86E1,4E0,1.2765E2,7.155E1,1E0,1E0,7E0,3.346315E1,2E0,1E0,2E0,4E0,2E0,1E0,2E0,1E0,1.6309204E1,4.0271595E1,2.41E2,2.1406677E1,-8.56077E-2,2.439702E0,-1.1387814E0,-6.1490006E0,3.0308998E-1,-5.193563E-1,9.552872E0,9.601755E-1,1.1675284E0,1.4235423E0,1.7971214E0,5.8033295E0,9.372531E0,-1.5079065E1,-1.7775418E0,-2.788637E0,-4.3950176E0,-1.2498554E1,-6.458319E0,4.4900703E0,1.3388038E1,4.3964943E1,5.575061E-1,2.209086E0,2.4714158E0,6.3865924E-1,2.7697382E0,-2.213779E1,1.05298195E1,3.3758578E0,-1.6791847E1,1.0255908E1],"split_indices":[2,2,1,2,1,2,1,2,1,0,0,1,1,2,0,2,1,1,0,1,1,0,0,1,2,0,1,0,0,2,1,2,2,0,0,1,0,1,0,1,1,0,0,0,0,0,0,2,0,0,0,0,0,0,0,0,0,0,0,0,0,0,0,0,0,0,0,0,0,0,0,0,0,0,0,0,0,0,0,0,0],"split_type":[0,0,0,0,0,0,0,0,0,0,0,0,0,0,0,0,0,0,0,0,0,0,0,0,0,0,0,0,0,0,0,0,0,0,0,0,0,0,0,0,0,0,0,0,0,0,0,0,0,0,0,0,0,0,0,0,0,0,0,0,0,0,0,0,0,0,0,0,0,0,0,0,0,0,0,0,0,0,0,0,0],"sum_hessian":[1.85013E5,1.8138E5,3.633E3,1.8065E5,7.3E2,3.623E3,1E1,1.79928E5,7.22E2,7.21E2,9E0,3.605E3,1.8E1,9E0,1E0,1.53136E5,2.6792E4,6.26E2,9.6E1,6.96E2,2.5E1,7E0,2E0,3.147E3,4.58E2,1.2E1,6E0,7E0,2E0,1.51524E5,1.612E3,2.6327E4,4.65E2,4.02E2,2.24E2,9.3E1,3E0,5.99E2,9.7E1,2.1E1,4E0,1.987E3,1.16E3,3.43E2,1.15E2,3E0,3E0,4E0,3E0,1.50581E5,9.43E2,1.51E3,1.02E2,2.4196E4,2.131E3,1.15E2,3.5E2,2.08E2,1.94E2,1.11E2,1.13E2,9.2E1,1E0,3.86E2,2.13E2,5.1E1,4.6E1,9E0,1.2E1,2E0,2E0,1.934E3,5.3E1,5.95E2,5.65E2,3.38E2,5E0,5.9E1,5.6E1,2E0,2E0],